<?xml version="1.0"?>
<opencv_storage>
<mlp type_id="opencv-ml-ann-mlp">
  <layer_sizes type_id="opencv-matrix">
    <rows>1</rows>
    <cols>5</cols>
    <dt>i</dt>
    <data>
      900 40 25 5 1</data></layer_sizes>
  <activation_function>SIGMOID_SYM</activation_function>
  <f_param1>6.6666666666666663e-01</f_param1>
  <f_param2>1.7159000000000000e+00</f_param2>
  <min_val>-9.4999999999999996e-01</min_val>
  <max_val>9.4999999999999996e-01</max_val>
  <min_val1>-9.7999999999999998e-01</min_val1>
  <max_val1>9.7999999999999998e-01</max_val1>
  <training_params>
    <train_method>BACKPROP</train_method>
    <dw_scale>1.0000000149011612e-01</dw_scale>
    <moment_scale>1.0000000149011612e-01</moment_scale>
    <term_criteria><epsilon>9.9999997473787516e-06</epsilon>
      <iterations>1000</iterations></term_criteria></training_params>
  <input_scale>
    4.3554549788982602e+00 7.2011512861964122e-01 4.3034069493413574e+00
    7.0556534358782164e-01 4.3147655744281952e+00 6.9218890364258623e-01
    4.2695487031421173e+00 6.6365685160662924e-01 4.2681709771998753e+00
    6.7307900918680474e-01 4.2699377457521628e+00 6.6001982714428276e-01
    4.2262945041222011e+00 6.0641625515446063e-01 4.2262785174760014e+00
    5.8946440031522640e-01 4.2474795727015886e+00 6.1043387756686796e-01
    4.2727398198068540e+00 6.3496708363970567e-01 4.2635344354474283e+00
    6.3513832422011451e-01 4.2930490666486190e+00 6.4335370529022251e-01
    4.2486904881801033e+00 6.2359034054064022e-01 4.2702191186191305e+00
    6.2911849024036026e-01 4.2016049228784924e+00 6.1916365423988429e-01
    4.2205391510187207e+00 6.1998849255154698e-01 4.2588870211484338e+00
    6.3403375417835695e-01 4.3073434581535919e+00 6.4102224427586629e-01
    4.3657140105625736e+00 6.7086114323236434e-01 4.3111729862482422e+00
    6.5344592417999969e-01 4.4145357988662992e+00 6.8654005521884165e-01
    4.3519307691352553e+00 6.7020043382460726e-01 4.3838034570050493e+00
    6.7906550670614818e-01 4.3914845055056828e+00 6.9699431063086859e-01
    4.4057468614545279e+00 7.1126802770596975e-01 4.4305930792551527e+00
    7.2355518319117995e-01 4.4189530325490667e+00 7.2224384692069865e-01
    4.3552622348940302e+00 7.2450409604550414e-01 4.4058308293096253e+00
    7.4620595832804759e-01 4.3321130237357011e+00 7.1667518922980189e-01
    4.4363989137311091e+00 7.7343492409421954e-01 4.4734972034917497e+00
    7.8592974049875319e-01 4.4352119076935335e+00 7.6467652638432448e-01
    4.4418832455158936e+00 7.5317199541160440e-01 4.4086438269704074e+00
    7.3055847801071927e-01 4.3641830248070344e+00 7.0311934825346201e-01
    4.3228223080978205e+00 6.5447652700939607e-01 4.2653951215517685e+00
    5.9990821085043611e-01 4.2683523354591912e+00 6.0971518612146702e-01
    4.3748618010424760e+00 6.8626429748760343e-01 4.3289650639065389e+00
    6.7117109079968718e-01 4.3283799639078504e+00 6.6632447411942586e-01
    4.3031341539127483e+00 6.5757480185342199e-01 4.2936482949934502e+00
    6.5829315275778710e-01 4.2192584438385516e+00 6.4555224689482182e-01
    4.1554053647284865e+00 6.4721898697982316e-01 4.2613110847148539e+00
    6.5676889960324625e-01 4.3180617317565622e+00 6.7597615208870465e-01
    4.3760352641089542e+00 6.8198355816040390e-01 4.3638139964252725e+00
    6.8491943478746120e-01 4.4909463480592953e+00 7.4231705190943542e-01
    4.4636855250052045e+00 7.3514857663146516e-01 4.5019603928688667e+00
    7.6350009413113495e-01 4.4595156819739659e+00 7.4386513520735509e-01
    4.5131485200974266e+00 7.7604739109869192e-01 4.4477673374719986e+00
    7.6148869584607171e-01 4.4723486657105394e+00 7.7298642373368076e-01
    4.4221042954017493e+00 7.5924679541411133e-01 4.3846530893246127e+00
    7.4581948091459238e-01 4.3056949292880109e+00 7.1444496254216827e-01
    4.5074758847013383e+00 7.9462328905213753e-01 4.5041643948489183e+00
    7.9599555927749610e-01 4.5384162660447593e+00 8.1260384595633162e-01
    4.5146973361965914e+00 7.9509321082921514e-01 4.4053534587933525e+00
    7.5966692017090931e-01 4.4274887308876325e+00 7.4994360584918818e-01
    4.3947606330235169e+00 7.0678105174266748e-01 4.3676265588417857e+00
    6.5580958272528123e-01 4.2747894243043385e+00 6.1260296979627449e-01
    4.3497092511461490e+00 6.9043222821263883e-01 4.3985634213991567e+00
    7.0441226983644856e-01 4.3569604414912204e+00 7.0716475280964342e-01
    4.3545985200313435e+00 6.8388314248881643e-01 4.2966563561175279e+00
    6.7118642650305582e-01 4.2693603155212889e+00 6.8463678332544120e-01
    4.2607057753650048e+00 7.1322195935425570e-01 4.3473172387173875e+00
    7.3407788177539235e-01 4.3624041036173242e+00 7.0470440947554269e-01
    4.4017279612195361e+00 7.1437325415439878e-01 4.3934832775742567e+00
    7.0529980216648269e-01 4.4263364277736947e+00 7.2585921432883505e-01
    4.5083301410375762e+00 7.7942944142727699e-01 4.5221529089215800e+00
    7.8855077175046251e-01 4.5252525423810273e+00 7.9136428485330435e-01
    4.4663722268765227e+00 7.7246759744106264e-01 4.4736752831592801e+00
    7.8254354979073537e-01 4.4933783120203827e+00 7.8435606252413359e-01
    4.4424108984580846e+00 7.7922477579715310e-01 4.4603759211247533e+00
    7.6612117735727914e-01 4.3814298850292541e+00 7.3353376377376356e-01
    4.5171045455682961e+00 8.0488827107537986e-01 4.5007128009961290e+00
    8.1058635313232874e-01 4.5248823830389080e+00 8.1781588743987055e-01
    4.5489806870029623e+00 8.1885106081429182e-01 4.4861586714597275e+00
    7.9503167799439123e-01 4.4621296630062890e+00 7.8518168844513869e-01
    4.4599919506337526e+00 7.5166871994296103e-01 4.3895380622130205e+00
    6.6685105859907112e-01 4.3363045007668326e+00 6.5317116415590259e-01
    4.4048426591565821e+00 7.1961495286597232e-01 4.4736433089172056e+00
    7.3764293934710301e-01 4.4205954362035245e+00 7.2529940651919800e-01
    4.4751110951596909e+00 7.2048769831251747e-01 4.4038880540797853e+00
    7.0456220023690996e-01 4.3922189533804508e+00 7.2035633279201283e-01
    4.3908448238074698e+00 7.5556833396928347e-01 4.3404420563576336e+00
    7.4022965856852374e-01 4.4413281185198157e+00 7.4848833792400560e-01
    4.4512152216958274e+00 7.2996228785224182e-01 4.4738916183345854e+00
    7.4171014596082230e-01 4.4837528734643755e+00 7.5860580267804878e-01
    4.5100313702491572e+00 7.7002494976886271e-01 4.6188692884293703e+00
    8.3877832714887668e-01 4.5510074873143420e+00 7.8529571618693228e-01
    4.5358741337683499e+00 7.9863283973340193e-01 4.4771071999962251e+00
    7.8323756802965905e-01 4.5018392820451467e+00 7.9141546608407221e-01
    4.5359146022351222e+00 8.0325603742191054e-01 4.4661228670151392e+00
    7.8241422670317651e-01 4.4476708663012614e+00 7.6253102267603501e-01
    4.5388178042553315e+00 8.0316458131180801e-01 4.5733641400602147e+00
    8.2520244271700016e-01 4.5860812104485404e+00 8.3164829063488510e-01
    4.5700083580529371e+00 8.3388651933949698e-01 4.5135304982000184e+00
    8.0850228532914448e-01 4.5686993784229051e+00 8.2672729993327454e-01
    4.5190731962535731e+00 7.8142863871339452e-01 4.4387463857670841e+00
    6.9795774816468426e-01 4.3214556711902050e+00 6.5110408918432727e-01
    4.4521886759639786e+00 7.4235177380091355e-01 4.5284590741125523e+00
    7.3806853896201474e-01 4.5155795213175161e+00 7.3012178192907140e-01
    4.4858422095603006e+00 6.9656155731094360e-01 4.4605255341520635e+00
    6.8441520733267858e-01 4.3914934318597547e+00 6.8163535084976179e-01
    4.4319861848611000e+00 7.3930788768315803e-01 4.3703424065244292e+00
    7.3033980958512823e-01 4.4684780593888060e+00 7.3018635881039773e-01
    4.4619988677643212e+00 7.0973852179473373e-01 4.4418787396195754e+00
    7.0414433365124784e-01 4.5056671823853893e+00 7.5337864835212254e-01
    4.5671056486794512e+00 7.9041535328397128e-01 4.6139926686124788e+00
    8.2602717110613544e-01 4.6011005632729951e+00 8.0560338666145348e-01
    4.5895284898234694e+00 8.1488761846160007e-01 4.5618014287542481e+00
    8.1452345473796040e-01 4.5410606828587721e+00 8.0902625532745598e-01
    4.5622215574556098e+00 8.1847745265144434e-01 4.5612260761935799e+00
    8.1326324841251807e-01 4.5315421367620736e+00 7.9343630478658667e-01
    4.5903948126103842e+00 8.0165136140366366e-01 4.5295552860996722e+00
    7.9953475833202192e-01 4.5642890155389493e+00 8.1128987412608333e-01
    4.5850850934936478e+00 8.2089992798605793e-01 4.6623417514066343e+00
    8.4985633123281956e-01 4.6202979175950327e+00 8.4442868418624439e-01
    4.5654719826251915e+00 8.0808420591859187e-01 4.4851353973600983e+00
    7.3376486397620233e-01 4.3815835629628301e+00 6.6706400781373332e-01
    4.4292299077135766e+00 7.0035472704749968e-01 4.4849821530251672e+00
    6.7184681455634743e-01 4.5082836091048240e+00 6.8315692570365338e-01
    4.4976178196648551e+00 6.5064233548523465e-01 4.4590144866553327e+00
    6.3604053055426946e-01 4.4573497035596095e+00 6.6508377523705986e-01
    4.4117770451936398e+00 6.8989671196492908e-01 4.3342259193841040e+00
    6.6738316182657853e-01 4.4655086488156197e+00 6.9139480198183423e-01
    4.5232491568819482e+00 6.8420587325858251e-01 4.4701734507374420e+00
    6.7142944017013750e-01 4.5755609932170724e+00 7.6074412120821056e-01
    4.6069995771568184e+00 8.1408467373988236e-01 4.6905578579171170e+00
    8.4834866856379221e-01 4.6751005772177958e+00 8.1316628289465120e-01
    4.6066462257921748e+00 8.1657716097197386e-01 4.5231704505911932e+00
    8.0092820207283189e-01 4.5722261485913673e+00 8.1158825488385111e-01
    4.6022569280660033e+00 8.1324661517129038e-01 4.6198374060539038e+00
    8.1890335133452674e-01 4.5710138826296980e+00 7.9391390261238837e-01
    4.5831168554321193e+00 7.9843798313168890e-01 4.5290536291504830e+00
    7.7205233131533257e-01 4.5662210837537041e+00 7.9664131834475371e-01
    4.6434902781942666e+00 8.2267083811170016e-01 4.7028685933183665e+00
    8.5104274992069084e-01 4.6084130040344276e+00 8.2658350906867406e-01
    4.6044743145587272e+00 8.1134972783290904e-01 4.4972780819105029e+00
    7.2256234665792651e-01 4.4770892155494932e+00 6.9882159094946694e-01
    4.4808080794206253e+00 6.4594816300923330e-01 4.6055414763103375e+00
    5.9787880956751138e-01 4.4822756710646390e+00 6.1059420795593078e-01
    4.5243056229194796e+00 6.1543199192015252e-01 4.4449896303957530e+00
    6.1320147827666549e-01 4.4570010447386963e+00 6.3655787409217923e-01
    4.4073387734936267e+00 6.5118779483989864e-01 4.3416793624743866e+00
    6.3581873967239388e-01 4.4225486673126495e+00 6.3720245467990777e-01
    4.4434793217742294e+00 6.1939833186437698e-01 4.5234650139083010e+00
    6.4010975432426875e-01 4.5772824232252471e+00 7.3995479688763111e-01
    4.6416326354255446e+00 8.2067812523598827e-01 4.6972082619260664e+00
    8.4017537413089538e-01 4.6318910807457518e+00 7.7390250797485494e-01
    4.5851209045511387e+00 7.9354519149846081e-01 4.5034378063037908e+00
    7.7863074527248743e-01 4.4946426919093829e+00 7.6450494215383835e-01
    4.5294446138816769e+00 7.8163419492332409e-01 4.5773778228595381e+00
    7.8452913313020634e-01 4.5565711085530793e+00 7.6971001384768611e-01
    4.6050415121244077e+00 7.6441679517499828e-01 4.6516794047166332e+00
    7.9138608115720344e-01 4.6273779388767213e+00 7.8912809107786630e-01
    4.7260251355267133e+00 8.1263970307888889e-01 4.7939517881143674e+00
    8.3999664703895160e-01 4.6582008390217586e+00 8.1367557747351660e-01
    4.5958730934058032e+00 7.7880179576952790e-01 4.5580971794118632e+00
    7.3345485248546904e-01 4.5911071687062828e+00 7.1749526373200467e-01
    4.5923799618745127e+00 5.9743171303042741e-01 4.5849451435510602e+00
    5.6205147433831748e-01 4.5147691937514649e+00 6.6976548815737214e-01
    4.4537239323083355e+00 6.4845206198069949e-01 4.3713544382084137e+00
    6.3855203838931107e-01 4.4077012127729178e+00 6.3969872488845769e-01
    4.4803875576192702e+00 6.6002336293290365e-01 4.4594877215498734e+00
    6.6042116401721296e-01 4.4364828718966631e+00 6.3310514021046582e-01
    4.4666739970708651e+00 6.3749534145344289e-01 4.5259117184519191e+00
    6.5031898987863324e-01 4.6236965375193630e+00 7.4701045640631480e-01
    4.6796814246889928e+00 8.3716282921740703e-01 4.7419784106706464e+00
    8.3249019017318193e-01 4.6666011882083769e+00 7.4730081492279699e-01
    4.6135736289950344e+00 7.7084200278840032e-01 4.6180032931958852e+00
    7.7565350308279801e-01 4.5822316164566663e+00 7.6595297934742024e-01
    4.6105504104578898e+00 7.7460674439179877e-01 4.6108340312670082e+00
    7.6900913969873907e-01 4.6860859557233869e+00 7.9372119132912500e-01
    4.7056683058122966e+00 7.7972930457488909e-01 4.7415164558400491e+00
    7.6984134005591676e-01 4.7438962540002922e+00 7.6396036695820957e-01
    4.7406371957506943e+00 7.6203409008267642e-01 4.7843137683933810e+00
    7.7474982533608994e-01 4.7209440884266325e+00 7.8121070384210967e-01
    4.6361350291066765e+00 7.4589083091109154e-01 4.6449657149178218e+00
    7.2709096827988640e-01 4.7154288221850402e+00 7.3309996736816074e-01
    4.6557188406759487e+00 5.9272432190449176e-01 4.7499636576319535e+00
    6.4315785987908902e-01 4.6361637287236386e+00 6.8318967676921905e-01
    4.5484436329078033e+00 6.5569842712905535e-01 4.5692381544189846e+00
    6.5341260955952185e-01 4.5124648191653263e+00 6.3422063499798165e-01
    4.5628569346247723e+00 5.9377005948371664e-01 4.5979894501975416e+00
    6.2272449106175609e-01 4.5983361470883768e+00 6.1820011597353619e-01
    4.6274729505590750e+00 6.5360507429162507e-01 4.6483947806540584e+00
    6.5184178848923380e-01 4.6587239175042283e+00 7.0178547812195802e-01
    4.7452625814621978e+00 7.8811496418622795e-01 4.8046601486143583e+00
    8.0656500796016417e-01 4.7057659929800213e+00 7.3261950364395390e-01
    4.7527257234727589e+00 7.6984597269284649e-01 4.6524248967314055e+00
    7.3879893446919465e-01 4.6590778243167721e+00 7.4206156890130004e-01
    4.7001503283184585e+00 7.6666635465614574e-01 4.6944431046901611e+00
    7.8558190521168236e-01 4.7037395775358535e+00 7.7890518333757908e-01
    4.7359778250792459e+00 7.2070819079194104e-01 4.7642587809787793e+00
    7.1459209916406385e-01 4.8052223646766699e+00 7.2785145236957183e-01
    4.8566979184526335e+00 7.3195113674846113e-01 4.9670146785543574e+00
    7.6332549001817140e-01 4.8059650819914150e+00 7.3474079709276363e-01
    4.7731207479580426e+00 7.5207138160943388e-01 4.8590597328130958e+00
    7.2811215858499290e-01 4.7910375759090762e+00 7.2338408972431367e-01
    4.7567024038102135e+00 6.3997618942719847e-01 4.6981439524882838e+00
    6.7242413980240157e-01 4.7455809059514520e+00 6.9270870736385670e-01
    4.7741198397020623e+00 6.7077107068553754e-01 4.7305485024216569e+00
    6.2931661343465539e-01 4.5959353703456962e+00 5.9767781783197171e-01
    4.5791733841760909e+00 5.7419813350648696e-01 4.7230331543188191e+00
    6.2485713763178286e-01 4.6652415779788932e+00 6.3593354870099694e-01
    4.7198791390059105e+00 6.6720024305368986e-01 4.7207990150255963e+00
    6.5157143079075419e-01 4.6155688913402733e+00 6.7089335630395897e-01
    4.6996841585957849e+00 7.3634473428284419e-01 4.7643684749341793e+00
    7.5613918261811619e-01 4.7549094288698512e+00 7.4135265286116792e-01
    4.7467553546594194e+00 7.3227034403615254e-01 4.6972610013786680e+00
    7.1417735985871034e-01 4.7250983275442282e+00 7.2494898308545574e-01
    4.7231276648638696e+00 7.2590697471621124e-01 4.7830044756593129e+00
    7.4318040168140265e-01 4.7826866845315434e+00 7.4495778934700219e-01
    4.8684198413847275e+00 6.6394781845105588e-01 4.8384780419925475e+00
    6.8745895981582594e-01 4.9436782619132140e+00 7.1283019822982674e-01
    4.9372395721340512e+00 7.0106492027166101e-01 5.0760669724639627e+00
    7.3947546241615580e-01 4.9555725001264674e+00 7.2701697375285756e-01
    4.9888199604494394e+00 7.4304047638480730e-01 4.9844568784363865e+00
    7.0646556130056615e-01 4.9510649941449891e+00 6.8754971276512733e-01
    4.8888608691229845e+00 6.6709365176103375e-01 4.8822126324411048e+00
    7.4951408236376604e-01 5.0127498623205842e+00 7.9148063244238487e-01
    4.9428201508479450e+00 7.5933575003255416e-01 4.8053310985521218e+00
    7.0875948794356858e-01 4.6638619026710320e+00 6.9262765073921784e-01
    4.6548733531971038e+00 7.0129067543454182e-01 4.7661138156521217e+00
    7.5932139801274190e-01 4.8073136321967551e+00 7.8957938846075326e-01
    4.8342619272144649e+00 7.7241705253174919e-01 4.7292004706965969e+00
    7.0929657986700057e-01 4.6134997525086598e+00 6.6021284112490630e-01
    4.7398405908842873e+00 7.1657161345465870e-01 4.7816190460605297e+00
    7.7508902994354667e-01 4.8075591265188180e+00 7.6079284130481828e-01
    4.8270753233421999e+00 7.4115046393192174e-01 4.7942803911885008e+00
    7.0754346838680626e-01 4.8189386998396913e+00 7.1245586043982667e-01
    4.7148685996289430e+00 6.7375707888957381e-01 4.7267941910263644e+00
    6.6979767991088579e-01 4.8580002350038285e+00 6.9393106050257547e-01
    4.8856372747236110e+00 5.8601574860793670e-01 4.9175769993112493e+00
    5.8711943291258029e-01 5.0008254999703841e+00 6.3444921404780852e-01
    5.0826101261228489e+00 6.6228375124116678e-01 5.1616031286945789e+00
    7.0343209025423192e-01 5.0329651753350104e+00 6.7827748066678095e-01
    5.1529129159153690e+00 6.9147673144786803e-01 5.0714539624938020e+00
    6.9362744152457723e-01 5.0828537317999674e+00 6.6889769382531894e-01
    4.9533866218472804e+00 6.5407590394795345e-01 4.9260542169298862e+00
    7.4281618770534186e-01 4.9031739623187605e+00 8.0638868019054510e-01
    4.8831717964680497e+00 8.3766816653230725e-01 4.8238662452484693e+00
    8.3471332545507160e-01 4.6814690708941349e+00 7.9612349238663982e-01
    4.6379532326128246e+00 8.0790625114009262e-01 4.6453396610675499e+00
    8.2527105673316081e-01 4.7442007381838129e+00 8.5637514382437929e-01
    4.8515888072272073e+00 8.5389082569128338e-01 4.7964532509799547e+00
    7.9558799816368242e-01 4.6192897895139176e+00 6.8924695029389227e-01
    4.7689850290633107e+00 7.2749028837377172e-01 4.8014413431152656e+00
    7.4872063984604520e-01 4.8805519844850274e+00 7.2355690283531837e-01
    4.9348767347178430e+00 6.9934801116506828e-01 4.8739553912931957e+00
    6.7352634842768688e-01 4.9978639850878492e+00 6.9123751138152356e-01
    4.8461508702977527e+00 6.4387140455146463e-01 4.9018010117079553e+00
    6.5739495422243210e-01 5.0142820754146182e+00 6.6378289952647451e-01
    5.0399878373111875e+00 5.5012732375080320e-01 4.9810575084032056e+00
    5.2963441595167016e-01 5.0078324241123369e+00 5.6886315796112774e-01
    5.0846725560677442e+00 6.0244016779836473e-01 5.1159639097150746e+00
    6.2374756670333531e-01 5.2025545158259323e+00 6.6015123536092335e-01
    5.1993827467232601e+00 6.3091205152094620e-01 5.0500351540579489e+00
    6.4970264162907554e-01 5.0600134162886894e+00 6.9024915224849692e-01
    4.9593299461115192e+00 7.2380569279937101e-01 4.9238986398260147e+00
    7.3516155254596105e-01 4.9043764151409617e+00 8.0915252843773533e-01
    4.9375768494042642e+00 8.8518447457803850e-01 4.8611985858701239e+00
    9.1323057192810231e-01 4.7665270067760348e+00 8.9265221527712946e-01
    4.7632282763659131e+00 8.8672597725163549e-01 4.7008603604779449e+00
    8.9426355323675721e-01 4.7497382461204101e+00 9.0812209605942762e-01
    4.8535800601007564e+00 9.2387472678725135e-01 4.8182669722964802e+00
    8.8795931116084781e-01 4.8060461470334435e+00 7.7588015351111572e-01
    4.9294860105307094e+00 7.4800208052504868e-01 4.9074454961214675e+00
    7.0082706797018801e-01 4.9621321015900497e+00 6.7048403109532606e-01
    5.0956988393678797e+00 6.3359463511515557e-01 5.1520673342169285e+00
    6.3240855000640794e-01 5.1374288225108362e+00 6.2479211092049303e-01
    5.0915133268944066e+00 6.2331063313284352e-01 5.0802852043753930e+00
    6.2132469963310044e-01 5.0622759686104422e+00 6.1736075838848581e-01
    5.0615318255037050e+00 5.1463443673661946e-01 4.9802197649407214e+00
    4.9501883676037323e-01 5.0470045499658873e+00 5.2354858859104481e-01
    5.0513194884917958e+00 5.4454532658833876e-01 4.9622116065077400e+00
    5.4753156990491603e-01 5.0386177625934359e+00 5.8293188940210461e-01
    5.0719471894466377e+00 5.9133907555263343e-01 5.0218239298981251e+00
    6.4423389996739999e-01 4.8983467235966627e+00 6.9878443025356485e-01
    4.8145518721051079e+00 7.5453109453165579e-01 4.8204579745791269e+00
    8.2561119675682415e-01 4.7527110822520591e+00 8.1108611228469296e-01
    4.7652810412343154e+00 8.7819452750559712e-01 4.8688530660413107e+00
    9.7808865865337069e-01 4.8357693036385392e+00 9.6213145298331759e-01
    4.7744888459021118e+00 9.5037617940804542e-01 4.9109997366053575e+00
    1.0014844933666829e+00 4.9347506682418665e+00 1.0321477770314387e+00
    4.9203006647864607e+00 1.0376596363602666e+00 4.7738270245067067e+00
    9.6062273196660286e-01 4.7946989288378505e+00 8.2661818295905076e-01
    4.9225685033337649e+00 7.4661758600911943e-01 4.9432908483885090e+00
    6.8207315520595091e-01 5.0254307228860826e+00 6.3770232199957777e-01
    5.0917744539081644e+00 6.0188293684333982e-01 5.1271254817827421e+00
    5.9403004025687056e-01 5.1913383224098277e+00 6.1263348672165141e-01
    5.1352286904034257e+00 6.0410426562187580e-01 5.2258137449044888e+00
    6.3242403344415876e-01 5.1404498881993561e+00 6.2987978448599846e-01
    5.1171282976354151e+00 4.8360675851581686e-01 5.0929732187658674e+00
    4.7636745235160022e-01 5.1780557623346715e+00 5.0601342251892723e-01
    5.1979621119512931e+00 5.1740968800012477e-01 5.1530710546307086e+00
    5.4508006085545524e-01 4.9935975934484729e+00 5.7121757239084558e-01
    4.9547743809591385e+00 5.9726391660536327e-01 4.9116920341728836e+00
    6.6115004061034044e-01 4.7129801053731883e+00 7.0220316941339889e-01
    4.7439530375743741e+00 7.9585276617091105e-01 4.7766813901245895e+00
    8.9395404924344746e-01 4.7333212528833366e+00 8.7423639114635532e-01
    4.7699769280724347e+00 8.8652228194597626e-01 4.7689653488805597e+00
    8.9424418684328311e-01 4.7386182235484711e+00 9.2467799950648888e-01
    4.7882952252775830e+00 9.7787727602782815e-01 4.8712998592956129e+00
    1.0366542322893151e+00 4.9519775188173716e+00 1.0816374793668506e+00
    4.8370766536474417e+00 1.0735603676135828e+00 4.7754260967150355e+00
    1.0162389845225233e+00 4.7285640851007651e+00 8.9117127926408701e-01
    4.7899686691095775e+00 7.6828470480440170e-01 4.9555449425594977e+00
    6.4185033476427245e-01 5.0013268010707179e+00 5.4140644710701880e-01
    5.0896342296283148e+00 5.5040671768578131e-01 5.1953084701887251e+00
    5.8093076628237206e-01 5.2098494885230480e+00 5.9415551539361244e-01
    5.2459529663067181e+00 5.8262749649343959e-01 5.2290463494384021e+00
    5.7013426088978303e-01 5.2010924943893109e+00 5.8058423720980334e-01
    5.2482017696821295e+00 4.5284096883650143e-01 5.1582830825175439e+00
    4.3736336605032439e-01 5.2351610754172526e+00 4.6674007359785147e-01
    5.2151908021451261e+00 4.7520595683191308e-01 5.1319518725367805e+00
    4.9041830073082676e-01 5.0580714659436730e+00 5.4342065124453642e-01
    4.9106191182081025e+00 5.6518145033253542e-01 4.9029139432219120e+00
    6.6037889611971923e-01 4.6633930633071943e+00 7.8519270538259167e-01
    4.6239496054127258e+00 8.7424942233064407e-01 4.7021974224558942e+00
    9.4687320801405161e-01 4.7044327554030874e+00 9.4547722547126167e-01
    4.6235072395947618e+00 8.6040091670442742e-01 4.7568444077169199e+00
    8.6525302603743159e-01 4.7713499455237978e+00 8.8848755486593467e-01
    4.7278385395269389e+00 9.4859803887745975e-01 4.8071636706370127e+00
    1.0371788042648504e+00 4.8592969367849959e+00 1.1077435345667244e+00
    4.8642243163500547e+00 1.1195052408896520e+00 4.8199836443019137e+00
    1.0598176449893708e+00 4.8235694979114383e+00 9.5961582679532176e-01
    4.7616842625192586e+00 7.9724532399084436e-01 4.8539589308464750e+00
    6.5068664313237889e-01 4.8953176464867569e+00 5.5715784287011272e-01
    5.0975519998291352e+00 5.1109546390369054e-01 5.2594176547581224e+00
    5.2820518053843568e-01 5.2128266024564294e+00 5.0698386269417883e-01
    5.3103964004742679e+00 5.1937677265423476e-01 5.2325277481276604e+00
    5.2035757832961516e-01 5.1100759931225177e+00 5.2081347248749665e-01
    5.1359310125419118e+00 3.0895263756218355e-01 5.0505420973178037e+00
    3.1767632522619843e-01 5.1775531740815115e+00 3.5276903151289135e-01
    5.2492242936385329e+00 3.8021498539273396e-01 5.1864263574633016e+00
    4.3114727013472698e-01 5.0155764149274935e+00 4.8097679221073453e-01
    4.8991311137425786e+00 5.6994719887103429e-01 4.7724658664895880e+00
    6.5883990044443874e-01 4.6209936655626196e+00 8.3943006462308511e-01
    4.5208662941403688e+00 9.3765592121588270e-01 4.5364973795639614e+00
    9.9556208094416476e-01 4.6230825962250810e+00 1.0526494862735052e+00
    4.6493028318247207e+00 1.0125821650112852e+00 4.7464774763825659e+00
    9.4756950210235313e-01 4.6071934199483788e+00 8.5038635372288540e-01
    4.5338918201014975e+00 8.4957172170057349e-01 4.6677731697577824e+00
    9.6538995765785651e-01 4.7455242007531009e+00 1.0924718518876211e+00
    4.7405872555008139e+00 1.1556394765265743e+00 4.6861007897716611e+00
    1.1161708918354514e+00 4.7323066250951085e+00 1.0561755425711112e+00
    4.5477720461336144e+00 8.4301153382801020e-01 4.6420895045094328e+00
    6.8211981766168017e-01 4.7906167641835991e+00 5.7598443626206808e-01
    5.1427954241063594e+00 4.8449871362886943e-01 5.2815300976984645e+00
    4.5284273687481119e-01 5.3619718733939852e+00 4.7801781624109524e-01
    5.4301338765158214e+00 4.8446378672581991e-01 5.4522255826355757e+00
    4.7931717366721999e-01 5.4195857228591526e+00 4.7687308024646086e-01
    5.3430823912486964e+00 3.0623357249597588e-01 5.2946199063135992e+00
    2.8845495000682231e-01 5.2420124445190641e+00 3.1403117337034159e-01
    5.1760098954309690e+00 3.1665814924487845e-01 5.1028947509021050e+00
    3.5753438277970112e-01 4.8902419134083503e+00 4.1296059427209425e-01
    4.8282382994421296e+00 5.4812117321136911e-01 4.7122544453399824e+00
    7.0633582499946090e-01 4.4652852652801664e+00 8.3230036126288931e-01
    4.3459405083491731e+00 9.6155406417816902e-01 4.3781996699225108e+00
    1.0552945243530003e+00 4.3833883205800008e+00 1.0934933986144886e+00
    4.4859889298748685e+00 1.1325260645834501e+00 4.5741123134264559e+00
    1.1029229726644549e+00 4.4659951789279244e+00 9.8488021232541945e-01
    4.3319064150764310e+00 9.0924195301348243e-01 4.4049010631779710e+00
    9.7172987087580609e-01 4.5291630868091222e+00 1.1208773890573061e+00
    4.5566316731389920e+00 1.1957544891214724e+00 4.4925094767014144e+00
    1.1708297089716762e+00 4.5563804685899205e+00 1.1453263461323018e+00
    4.3633032217327647e+00 8.8550246758593198e-01 4.4500043484903706e+00
    6.6552447789108660e-01 4.6985496992077698e+00 5.0034524873842812e-01
    5.2417518978356696e+00 3.9403132225525395e-01 5.4587632823801595e+00
    3.9135097363373200e-01 5.3584211897843055e+00 3.7742844570716011e-01
    5.3699543382954129e+00 3.6558313541451043e-01 5.4538990180006239e+00
    3.8468148825023329e-01 5.4340931247071245e+00 3.9760028425019700e-01
    5.4462775940549060e+00 2.7255254205148732e-01 5.3476767299575503e+00
    2.5396376102278184e-01 5.3184924659454138e+00 2.8060024273855533e-01
    5.4279941700032497e+00 2.9843353872605261e-01 5.1967901067575086e+00
    3.1276317197644760e-01 4.8834813132752490e+00 3.9505294218948395e-01
    4.6528240305930630e+00 5.3512133248329929e-01 4.4693886447953917e+00
    6.5106019263565329e-01 4.3110791739733099e+00 7.9027148393236246e-01
    4.1268515445807186e+00 9.3064555005786798e-01 4.1224717991500821e+00
    1.0398902756388957e+00 4.1196905617130719e+00 1.1076804729727281e+00
    4.2581284861305289e+00 1.2079875481931757e+00 4.2501325080631087e+00
    1.2227866360121744e+00 4.1694554252266558e+00 1.1726221965572317e+00
    4.0822914041811664e+00 1.1199241601919154e+00 4.1680703964362342e+00
    1.1618955015381238e+00 4.2545670085205556e+00 1.2007997816002050e+00
    4.3393989238174520e+00 1.2505125114417950e+00 4.3054132881923994e+00
    1.2203655226101813e+00 4.3478709289066266e+00 1.1757775148649272e+00
    4.1279635905208245e+00 8.8530184631492348e-01 4.1449470157026216e+00
    6.0804919009701197e-01 4.5872036871040764e+00 4.1585991255881538e-01
    5.2066708950327465e+00 2.1799516729325596e-01 5.2997812351167566e+00
    2.0683629126119984e-01 5.4129505613815239e+00 2.7494892218534533e-01
    5.4973938876063677e+00 3.1047559152866688e-01 5.5885293431313467e+00
    3.5623777864031747e-01 5.5593472388749534e+00 3.5638464496431593e-01
    5.4702662259923480e+00 2.3067724460215278e-01 5.3756503503998267e+00
    2.3000631377635289e-01 5.3712590691551538e+00 2.3104093866264033e-01
    5.2689031827610320e+00 2.3478457499689251e-01 5.1972720016573861e+00
    2.4998899920470244e-01 4.8789987461718631e+00 3.4297034285715189e-01
    4.4646729056624110e+00 4.7462226156416115e-01 4.3148316693983277e+00
    5.9847414414813205e-01 4.2004233075581823e+00 7.0514190531278487e-01
    4.0336623088929349e+00 8.9780104288337104e-01 4.0807456524762218e+00
    9.8839142252208234e-01 4.0681514990754160e+00 9.9733543024195659e-01
    4.2050168442261899e+00 1.0500633825831203e+00 4.1651959976549051e+00
    1.0399777913399475e+00 4.1706291136842326e+00 1.0419889995805205e+00
    4.1200334059937553e+00 1.0053228701448671e+00 4.2228345293343876e+00
    1.0381956670655816e+00 4.1828374412025653e+00 1.0512218179940209e+00
    4.2835381582842551e+00 1.1382762206847976e+00 4.2862220104185793e+00
    1.1285834800538077e+00 4.3378933379447533e+00 1.1106060237674682e+00
    4.0682803949366075e+00 8.5702681530443503e-01 4.0422757774479861e+00
    5.8237028521215473e-01 4.5568866733172513e+00 3.3893666933256239e-01
    5.1583541192060762e+00 1.9129006571448318e-01 5.3375498980192218e+00
    1.7224209363733212e-01 5.3258076015640423e+00 1.6961996426625975e-01
    5.4636381564719825e+00 1.8370071390819984e-01 5.5104686866224553e+00
    1.9664954521649294e-01 5.4277151451560464e+00 2.2250728887992341e-01
    5.4733858137561073e+00 2.3086607189219080e-01 5.5250687817757882e+00
    2.3170180028687962e-01 5.6152251549478196e+00 2.2806412859894154e-01
    5.5602346661462514e+00 2.5361402761410801e-01 5.5136443920649638e+00
    2.6709611857450188e-01 5.2678129423502611e+00 3.1382657522229007e-01
    4.7661518554268536e+00 4.3172113507004478e-01 4.4808907249422312e+00
    6.1507111856300289e-01 4.1635415619144709e+00 7.3315235845538718e-01
    4.0470758207019895e+00 8.8115708325126707e-01 4.2320706034165472e+00
    9.0082006480604260e-01 4.2050012876051523e+00 8.1139711313989360e-01
    4.2568480825621116e+00 7.8072005954017532e-01 4.2552580808519682e+00
    7.4924693359551298e-01 4.2291820949899863e+00 7.4500963914115226e-01
    4.2350702902462798e+00 7.2369961711059017e-01 4.2979473641051928e+00
    7.1478977079144312e-01 4.3247873455375885e+00 7.2504637619705137e-01
    4.3294803827052011e+00 8.3094265322874949e-01 4.3977691768658635e+00
    8.8606574085709089e-01 4.2819430894950639e+00 8.9393803861359233e-01
    4.1754543236547956e+00 8.3865193852029041e-01 4.0488059844480730e+00
    5.8153160700062911e-01 4.6936500755894386e+00 2.8789734648219811e-01
    5.3652779739173653e+00 1.2809461892068799e-01 5.5421490799494277e+00
    1.0826362083613696e-01 5.5700471062714785e+00 1.0666652497798516e-01
    5.5911886810081066e+00 1.3920742856416674e-01 5.5345259993575802e+00
    1.4971288070338701e-01 5.4608227329791887e+00 1.7013417973806044e-01
    5.6805364832154863e+00 2.4233805657319674e-01 5.6246292659200972e+00
    2.4991486052469089e-01 5.7023661610057932e+00 2.2480073720992841e-01
    5.6952498737559392e+00 2.2954131954975213e-01 5.7612432908096478e+00
    2.4994100661976651e-01 5.7403519013380997e+00 2.7636646378402463e-01
    5.5133983069468577e+00 3.3238042100267012e-01 5.0799229864506996e+00
    4.7437600286327697e-01 4.5601393480429619e+00 6.3205731286186140e-01
    4.5318888128327286e+00 7.4385601242340105e-01 4.6402656643735414e+00
    7.1921721703440977e-01 4.5984845976602253e+00 6.8591401617855507e-01
    4.6530609664607683e+00 6.8835772011456342e-01 4.6458437660859691e+00
    6.8399627188612988e-01 4.6517336704380536e+00 7.1511682599009030e-01
    4.6787824900638944e+00 7.2113559707658359e-01 4.6837682357554336e+00
    7.2044589902292455e-01 4.7683180785597665e+00 7.2184986077297231e-01
    4.8502976375455651e+00 7.3239502304625204e-01 4.7985017231127935e+00
    8.0388667421639970e-01 4.7302621439616876e+00 8.6309079379896292e-01
    4.6125592742122485e+00 7.6947788294041597e-01 4.6919405297031389e+00
    5.1052909693636406e-01 5.2467636999235383e+00 2.8608105184804472e-01
    5.6337806012412930e+00 1.7292874782120338e-01 5.7836437959939806e+00
    1.4024668792637901e-01 5.7133675651731464e+00 9.8918408310363873e-02
    5.7465252283653090e+00 9.8635567620410522e-02 5.7756165157325592e+00
    1.0546587688489788e-01 5.5968502844827608e+00 1.1920092992441854e-01
    5.6733644998849604e+00 2.2678913104084836e-01 5.5609751007830335e+00
    1.8473299428742443e-01 5.5929060794192589e+00 1.7072304280290040e-01
    5.6684426802603776e+00 1.6475401781273499e-01 5.6669918439589662e+00
    1.5466012731980922e-01 5.6819524917992625e+00 1.8493158209388785e-01
    5.6518633899508597e+00 2.3292340253954461e-01 5.3949587345846552e+00
    3.1098516243170121e-01 4.9793521757963592e+00 3.5096262555869279e-01
    5.0180780945189856e+00 3.4939934092496427e-01 5.0612981526057208e+00
    3.4016076579043236e-01 5.0099547199037593e+00 3.5596374872868852e-01
    5.0628904180580294e+00 3.5834740350228605e-01 5.0138032866573825e+00
    3.6662564234467160e-01 5.0449909737635075e+00 3.7797343254902194e-01
    5.1137596643728376e+00 3.9274456389840562e-01 5.1048516216025535e+00
    4.0622998386668280e-01 5.0877156942935766e+00 4.0980439805062524e-01
    5.2084794081581665e+00 4.0818117419571626e-01 5.1145200222332976e+00
    4.3499077754746274e-01 5.0868201628564913e+00 4.6567803898334548e-01
    5.1025675859555433e+00 4.3237234597681545e-01 5.4699003788078091e+00
    3.2492134897933361e-01 5.6465961113904433e+00 2.1938181237704590e-01
    5.7994576402909468e+00 1.7548045996584344e-01 5.8607672713918220e+00
    1.4820384180141322e-01 5.8020495819635114e+00 1.2140065479798931e-01
    5.7951525744987036e+00 9.8924436005985841e-02 5.8602609559103556e+00
    9.4945903284387997e-02 5.6921953817358553e+00 9.9013480961918171e-02
    5.7227962004928763e+00 1.8501829168872516e-01 5.6380947593270641e+00
    1.6300170516284795e-01 5.6672404851763130e+00 1.5945577484219570e-01
    5.6681272343068176e+00 1.5590705185076917e-01 5.6486324875037370e+00
    1.5136612323273760e-01 5.6871546844686343e+00 1.5858777230502161e-01
    5.6563414432222272e+00 1.6832368089706670e-01 5.6879374543982744e+00
    2.1147946690469752e-01 5.4964659105038294e+00 2.2019224355874037e-01
    5.5584380479985516e+00 2.3107991195425706e-01 5.5195464798461265e+00
    2.3402606104795146e-01 5.6042226219865139e+00 2.5783427175765061e-01
    5.4751879121090150e+00 2.6527615119467662e-01 5.5145443116931077e+00
    2.6742824746230548e-01 5.5488754194827417e+00 2.7116900269251537e-01
    5.5615772810325215e+00 2.7152783616018039e-01 5.5919696227227957e+00
    2.8829925346942820e-01 5.5406288530757761e+00 2.8547839170595479e-01
    5.6030745923175029e+00 2.7078339621627834e-01 5.4201042437781197e+00
    2.6616640929882207e-01 5.4920226603704627e+00 2.7669524733334022e-01
    5.5190445723653987e+00 2.6878712871035432e-01 5.6832281629175627e+00
    2.2965151680156884e-01 5.7693282753705883e+00 1.9302787696390183e-01
    5.7073498987259921e+00 1.6095758791997142e-01 5.8815461437741030e+00
    1.4283612334367585e-01 5.8679733716669800e+00 1.4130909771771158e-01
    5.8531033991289938e+00 1.3788851918546224e-01 5.9102099058351483e+00
    1.3471898923578543e-01 5.7985815511104404e+00 1.3176491649658179e-01
    5.7048529164288793e+00 1.9515404620708016e-01 5.6496943677152540e+00
    1.7300337222680628e-01 5.6382417201624255e+00 1.6614777491614810e-01
    5.6015417876965259e+00 1.6009848555340628e-01 5.6586313396429784e+00
    1.5943560001790058e-01 5.7159930743571827e+00 1.4872992065342067e-01
    5.7158564481189389e+00 1.7589666616282043e-01 5.7493387417363273e+00
    2.0147390886951702e-01 5.8295939490532716e+00 1.9184152618940289e-01
    5.7500467594409299e+00 1.8370305051155056e-01 5.7474200248949323e+00
    1.9441494985243704e-01 5.7282323184298622e+00 2.0527496253146882e-01
    5.7557223892033278e+00 2.0242038010735161e-01 5.6528883842498496e+00
    2.0514819012495850e-01 5.8795692341543262e+00 2.2129619858326713e-01
    5.8147851144755291e+00 2.3207724000878280e-01 5.8271708058341574e+00
    2.2061980826620153e-01 5.8887723600994111e+00 2.4073031535273684e-01
    5.8418397461124503e+00 2.3075760546255902e-01 5.8471370002095862e+00
    2.1023964484662033e-01 5.9047649476813664e+00 2.1354752210933697e-01
    5.7191531478076048e+00 2.0441097153877386e-01 5.8079877060537042e+00
    1.7589050765504433e-01 5.7183730347550554e+00 1.7136643857467007e-01
    5.7326781901349788e+00 1.4593962691744941e-01 5.7979454364717311e+00
    1.3664977002108281e-01 5.8674908293650585e+00 1.5735366000107415e-01
    5.8878490547195605e+00 1.6395313554671131e-01 5.9508713200000125e+00
    1.6187827483907249e-01 5.8074285788365749e+00 1.7002428980822151e-01
    5.7203900470133382e+00 1.9950168420588255e-01 5.7993985838369255e+00
    1.8649350282321192e-01 5.8098906543405819e+00 1.8230148241286831e-01
    5.8106397778219439e+00 1.8186894768849896e-01 5.6954707750308611e+00
    1.5104184139251930e-01 5.7065531065004818e+00 1.5875547646858812e-01
    5.7649165609489730e+00 1.8087521312409910e-01 5.9002705397925137e+00
    1.8580114425405006e-01 5.9060690512756020e+00 1.9662948252069437e-01
    5.8122393584537591e+00 1.9945099513791353e-01 5.7961957808991054e+00
    1.8854373476051153e-01 5.7121111517668419e+00 1.8488205362466642e-01
    5.6785299659298056e+00 1.8584523403126019e-01 5.7387878885319958e+00
    1.7915461982376812e-01 5.8582995637165620e+00 1.9474791027964730e-01
    5.8071673632795289e+00 1.9655753188991210e-01 5.9131927935306088e+00
    2.0780368939225927e-01 5.8863776178577591e+00 2.2239942445049729e-01
    5.9024769126545458e+00 2.0696385993933297e-01 5.7781196391659240e+00
    2.0929991752205862e-01 5.8708642543657019e+00 2.0484170836644719e-01
    5.8803662279907867e+00 1.8163608630289033e-01 5.9345873705438654e+00
    1.8031445661630352e-01 5.8539409969844600e+00 1.6239634794597649e-01
    5.6784396771713803e+00 1.2549924618661901e-01 5.7108284254152437e+00
    1.0783858665637948e-01 5.7012597385100996e+00 1.3538525227672085e-01
    5.7541177643346400e+00 1.3057389482484386e-01 5.9096174515990825e+00
    1.7202661898294869e-01 5.8699270581401617e+00 1.9427448052918847e-01
    5.7636483637114608e+00 1.9155617553748111e-01 5.8922913955584972e+00
    1.9939251194111179e-01 5.8594906772942377e+00 1.8617252222767383e-01
    5.8637240361114822e+00 1.6059681139952167e-01 5.8018527993914990e+00
    1.6482183160453201e-01 5.7673346621223684e+00 1.6353946345621642e-01
    5.8131513746112855e+00 1.7945346041331334e-01 5.9923564092053168e+00
    1.9936113895066454e-01 6.0017358882798044e+00 1.9566936026805004e-01
    5.8567957728205702e+00 2.0079611379967613e-01 5.9305919776068023e+00
    2.0917537926751872e-01 5.8724475974731902e+00 2.1021256643167427e-01
    5.8860201658509652e+00 1.9882613020561654e-01 5.8856608176063148e+00
    1.9699707379833706e-01 5.8262890988879183e+00 2.0121347434805917e-01
    5.8539930943781409e+00 1.7800354220835857e-01 5.8795330049704653e+00
    1.9762257829483892e-01 5.9774466141958440e+00 2.0806009137278206e-01
    5.8618130431841253e+00 1.9126093054778290e-01 5.9534419250678567e+00
    1.8921991938650679e-01 5.9567557381376828e+00 1.9694562609999811e-01
    5.8800061451041499e+00 1.7637942231412373e-01 5.8033100735472578e+00
    1.5692295348459648e-01 5.7853593455922976e+00 1.3335636178294960e-01
    5.7654803696848713e+00 1.4561328148937630e-01 5.6771411993443675e+00
    1.3539175157472097e-01 5.6802510064052889e+00 1.4582350085013962e-01
    5.7587100769761799e+00 1.4955516978126066e-01 5.8207810962419746e+00
    1.9412502196910783e-01 5.9094745075510842e+00 2.1382606317130948e-01
    5.8197095954755031e+00 1.9005464149787049e-01 5.8986130192775414e+00
    1.8209168230812678e-01 5.9057216702763835e+00 1.8799676329064283e-01
    5.9901874837535809e+00 1.8498129346133310e-01 5.9467794313154476e+00
    1.8409198958107362e-01 5.8269176921542556e+00 1.7228695047232803e-01
    5.7945316447152670e+00 1.8961138427121035e-01 5.9092172485741221e+00
    2.0344360547745408e-01 6.0247332558258115e+00 1.9512668482800458e-01
    5.9527163966422343e+00 2.0998686666553210e-01 5.9378361527091350e+00
    2.2237080095988318e-01 5.9558718838817972e+00 2.2108299206620452e-01
    5.9967459050736194e+00 2.0866909813803419e-01 5.8539984247740682e+00
    2.0745402737549282e-01 5.9795294915303003e+00 1.8943898273814488e-01
    5.9794814261253943e+00 1.9547568188481779e-01 5.8718604607578024e+00
    1.8996044067786685e-01 5.8638534742511492e+00 1.9125080366183098e-01
    5.7782312617772860e+00 1.8650818055035120e-01 5.8210803290400737e+00
    1.8574400915904068e-01 5.8227043707831712e+00 1.7508709255408170e-01
    5.8535753924630711e+00 1.5924690217440016e-01 5.8103696444181310e+00
    1.4463411839280024e-01 5.7546531432192607e+00 1.3657788764702419e-01
    5.8087964054925783e+00 1.4581067871255857e-01 5.8865391770647699e+00
    1.6043628138492497e-01 5.7520340127709364e+00 1.7189364361198314e-01
    5.7712773836358719e+00 1.6564424765361446e-01 5.8663403427556435e+00
    1.9489243174596943e-01 5.9398627481121524e+00 2.1663495507662869e-01
    5.9788112574172603e+00 2.0207004483738669e-01 5.9153972715574783e+00
    1.9683171640815078e-01 5.9175063586364676e+00 1.7809257040108911e-01
    6.0172083332503847e+00 2.0212417881029268e-01 5.9186881334079242e+00
    1.9666250616270448e-01 5.8578301815902369e+00 1.9870143003638718e-01
    5.8802090094329449e+00 1.8636930247320288e-01 5.9071388568093921e+00
    1.9972495275547883e-01 5.9623771864173234e+00 2.0925137478379766e-01
    5.9071580532828616e+00 2.3369317110886739e-01 5.9200933583004414e+00
    2.2443216983385328e-01 5.8980978274592468e+00 2.1526603346206130e-01
    5.9368345540946006e+00 2.0969065707784587e-01 5.8922045304549187e+00
    2.1563670262400025e-01 5.9181825553539618e+00 2.0220399599390809e-01
    5.9648184440004757e+00 1.9622910455359327e-01 5.9268662409065636e+00
    2.0721433257746252e-01 5.9292749277222878e+00 2.0525099892659018e-01
    5.8349022227511682e+00 1.9116138283850523e-01 5.7560822494616461e+00
    1.7989028160781401e-01 5.8294721057657384e+00 1.8024704734525188e-01
    5.8203826888011880e+00 1.5657757904683581e-01 5.7914860358304319e+00
    1.4614887264876572e-01 5.8098396945014734e+00 1.3948357784609153e-01
    5.7766718241735253e+00 1.5012742935319723e-01 5.8492545979191517e+00
    1.6312327297601514e-01 5.8590563729421028e+00 1.7273138329326243e-01
    5.8132571220465810e+00 1.7732757666538940e-01 5.7719109278571628e+00
    1.9400518800131128e-01 5.8138948958055918e+00 2.1482413950963980e-01
    5.9752072940324688e+00 2.3241477020860743e-01 5.9263033870626112e+00
    2.1093110299413373e-01 6.0677240439965914e+00 2.1528201868298155e-01
    6.0335848284263642e+00 2.1522304054812941e-01 6.0064403139791827e+00
    2.0862930853903272e-01 6.0068969587147674e+00 2.2744004976384569e-01
    5.9944134502875253e+00 2.0643948435956361e-01 5.8874307332850178e+00
    2.0318640689157424e-01 5.9852494915403138e+00 1.9557029701828291e-01
    5.9991615344785112e+00 2.2210921321844976e-01 5.9941068099183807e+00
    2.2960591812508430e-01 5.8664159096840045e+00 2.2967184952739989e-01
    5.8872720435574530e+00 2.2696135477037546e-01 5.8286021895421243e+00
    2.0820085665317839e-01 5.8582313992755601e+00 2.0984161061542950e-01
    5.9274966919891483e+00 2.0816679853469680e-01 5.8559575079063508e+00
    2.0588422416093871e-01 5.8633002182621761e+00 1.8753603203036576e-01
    5.8428839198555451e+00 1.8760145045199650e-01 5.7643426209689075e+00
    1.8248587229146490e-01 5.7148446088587344e+00 2.0238813696170566e-01
    5.8502156418317437e+00 1.5907897583570524e-01 5.6995890054184928e+00
    1.5541555225304393e-01 5.8234949895330654e+00 1.6469013991261888e-01
    5.7535910135596211e+00 1.4666769316522368e-01 5.7858679794160226e+00
    1.4192023309485796e-01 5.8249642261853340e+00 1.6489931630311219e-01
    5.8190901743476733e+00 1.7563302307795925e-01 5.8063407428268823e+00
    1.6604301443654551e-01 5.7849054995028748e+00 2.0031396261603962e-01</input_scale>
  <output_scale>
    1.0526315789473684e+00 0.</output_scale>
  <inv_output_scale>
    9.4999999999999996e-01 0.</inv_output_scale>
  <weights>
    <_>
      -3.1978083376392415e-02 -4.6610239386809540e-04
      2.6353824475499801e-03 -8.8906334103886551e-06
      -1.6145998800782934e-03 -4.4243104286038952e-04
      -2.4040210942313955e-02 9.0505938735276038e-04
      1.6461162891230376e-03 -5.1139943091579074e-04
      -2.1866516689472433e-02 -8.9382781458685048e-04
      -1.6167659290239086e-03 -2.3882423452800611e-03
      6.5580409908962297e-04 -1.4664372770058231e-03
      -2.0539492951054624e-03 -1.7212533257279538e-03
      -2.0578363976976952e-04 1.7123817096138356e-03
      -4.4366788330923905e-03 1.3457520862611135e-03
      -3.0972541714893768e-03 -4.0953605197391165e-03
      5.7386343402634511e-04 -4.9634043090496119e-04
      2.9838472471473815e-04 1.2431030898399440e-04
      -2.8261501896850874e-03 2.7267653432608038e-03
      1.7105327339968972e-03 -2.3217627199161443e-03
      -2.0985466007208946e-02 2.5172394084930300e-02
      -1.2747284897541666e-03 1.7265565547833319e-03
      2.1991925117358017e-03 -4.4016835116493199e-04
      3.7673263268700715e-03 1.9604496285484385e-03
      9.3065083974553254e-03 2.3806801624018789e-03
      1.1038916192315040e-02 1.3013330897563565e-02
      -2.1659392614068188e-02 2.2827290558231723e-03
      -3.1249351775722290e-02 -1.1416333525971916e-02
      -1.7529267668647690e-02 7.0288401429273728e-03
      -3.0331255657930288e-02 -2.3173957869651752e-02
      8.0152680902506202e-03 8.6562083454486665e-03
      -6.0456821012854975e-03 8.6569395773186824e-05
      -1.8809528428716388e-02 -3.8943381037516186e-03
      -1.9177532271642546e-02 -4.0660662823207580e-03
      -2.2947250569747392e-03 -6.4039642470018051e-04
      9.9930457309136793e-03 1.3458268443603677e-04
      1.0897880457535310e-02 -6.4723916588002575e-03
      -1.5970359870320312e-02 6.5986626913913929e-03
      6.9231428963738391e-03 -2.1027093743209241e-02
      -1.0086581176964173e-02 1.4517036360366562e-02
      -2.0430322870164115e-02 3.9661303180503302e-02
      1.6834076435612837e-02 -2.2870920866189397e-02
      4.7455300802917502e-03 9.1083118818849357e-03
      -1.5578699141338295e-02 2.3005884367554130e-02
      1.2879157149704734e-01 1.6172555255454961e-02
      4.6301326513770218e-02 5.1247228631475801e-02
      -6.5735799323763666e-02 1.3538409456652748e-02
      -8.7150718239320163e-02 -5.0754847879689521e-02
      -6.4915783672273936e-02 3.7038710689458562e-02
      -9.1658973027420404e-02 -6.5910453405800581e-02
      4.1079095778366943e-02 3.1899379858183516e-02
      -1.6765754434026843e-02 9.1151454530402840e-03
      -5.7106658236666545e-02 -1.3920374583780806e-02
      -6.5586067901843098e-02 -2.3379583606989784e-02
      6.5820606031080425e-03 -6.9255564750833288e-03
      3.1901804295184917e-02 1.6345397382028729e-02
      3.3289677392883139e-02 -3.2066283376660558e-02
      -4.6915392406331545e-02 2.7107371053323701e-02
      2.3791467158355874e-02 -6.5899459614871828e-02
      -4.6405223032897583e-02 5.2261039433177905e-02
      -6.2893203018906607e-02 9.5901677780840758e-02
      5.9230526966521528e-02 -7.3934108726769726e-02
      7.1014790026520209e-03 3.9248522250153142e-02
      -5.3950874261683775e-02 8.0312085686364859e-02
      1.1374878932739231e-01 9.9248688543417014e-03
      3.7856879456756962e-02 4.4113973284562250e-02
      -5.5877080039501564e-02 8.6331659888258857e-03
      -7.6218766157517451e-02 -4.2034314778260203e-02
      -5.0282475640212002e-02 3.0436098272342040e-02
      -7.8995382628555447e-02 -5.7502863072607366e-02
      3.0804529444535718e-02 2.9270404150517976e-02
      -1.1647140089133630e-02 8.9453903298229286e-03
      -4.9352935140945700e-02 -1.0699839796596668e-02
      -5.5795027259230030e-02 -1.9955102784866608e-02
      9.4552376877485057e-03 -5.5116687114705257e-03
      2.8907916261059766e-02 1.4029002366219089e-02
      2.8680648521443280e-02 -2.7328246975021547e-02
      -4.2913339883492350e-02 2.2420910543436801e-02
      1.8485786666376167e-02 -5.1673230717879111e-02
      -4.0335826615314575e-02 4.2147906231508415e-02
      -5.3618193112155300e-02 8.7060031577713484e-02
      5.2504906609562141e-02 -5.8617102928536481e-02
      5.3684219422045357e-03 3.4158539932721894e-02
      -5.0046392413136090e-02 6.3152392600577839e-02
      1.1617834725692190e-01 9.8919484407569633e-03
      3.9125943873998252e-02 4.5603037401451989e-02
      -5.5037305298764459e-02 9.4992660819173003e-03
      -8.0480245188963129e-02 -4.0332211855615030e-02
      -4.9093883631391604e-02 3.0714688767718254e-02
      -8.0544642109668579e-02 -5.7414518382571979e-02
      3.2676255689816712e-02 2.8887508747946437e-02
      -1.2461969644266340e-02 1.0602656059370068e-02
      -5.1245235682430654e-02 -1.2592045235319906e-02
      -5.5113177052160851e-02 -2.0553356314738463e-02
      9.9995542150451058e-03 -4.2350522624692447e-03
      2.7769810623070004e-02 1.7187937058542654e-02
      2.6074085721578277e-02 -3.0131622690021301e-02
      -4.1360359516810392e-02 2.1073990162972341e-02
      2.0262486461823891e-02 -5.0941739929189503e-02
      -3.6237665409867940e-02 4.2351985735943828e-02
      -3.9606009171353568e-02 7.3514621360325466e-02
      5.1092836877173357e-02 -5.8565545472584961e-02
      3.7859592833193473e-03 3.3817657690271605e-02
      -4.4679509969138866e-02 6.0921778894239088e-02
      4.2332996874389885e-02 9.2255624729423932e-03
      2.9196501610775766e-02 3.0051552029470279e-02
      -4.4087886293947207e-02 8.4586875599621178e-03
      -6.2230602799399536e-02 -2.8064794366976363e-02
      -4.2890502932722195e-02 1.8577727269467933e-02
      -6.6324232706146374e-02 -4.1159753499139883e-02
      2.2962539038977797e-02 1.9172214983974659e-02
      -9.7703034561987621e-03 3.7498523225882206e-03
      -3.6491870057805340e-02 -8.6506592936559951e-03
      -4.5316306349923258e-02 -5.4724326778786067e-03
      1.1497092356029740e-03 -5.1761183645914208e-03
      1.6956991750178816e-02 4.7101992079673499e-03
      2.1953453794881565e-02 -1.6074101633566720e-02
      -2.9008336144295158e-02 1.8227133597993102e-02
      1.6525929415408883e-02 -4.6292493201370931e-02
      -2.5477832075091678e-02 3.1310299009623670e-02
      -2.3647050744352145e-02 5.4764327410244659e-02
      3.9604820685838628e-02 -5.0948267028388998e-02
      6.3246249500495937e-03 2.5750206433726934e-02
      -3.3300459738065974e-02 5.5533142139336314e-02
      1.5012357236781453e-02 4.9630565425570622e-03
      1.8307060293656204e-02 1.7336772756564100e-02
      -2.6298215705501043e-02 6.0167527988502934e-03
      -2.5403178647244208e-02 -1.5197860946895366e-02
      -1.9114455877946572e-02 1.4479887699462034e-02
      -3.4647417889362417e-02 -2.5948999785770560e-02
      1.1892499905146073e-02 1.2938084622788559e-02
      -7.0484823259819324e-03 3.6119294566615192e-03
      -2.4690284799204671e-02 -6.5859789344941827e-03
      -2.8615464750503191e-02 -3.3329373688006309e-03
      -1.9045255405441559e-03 -2.9510435112127175e-03
      1.0372730528672254e-02 8.5031013574898579e-04
      1.1737695397272816e-02 -9.8218820805367601e-03
      -1.6790864883869515e-02 1.1738113304678935e-02
      1.1434020896563354e-02 -2.7921296677624486e-02
      -1.6113778849068592e-02 1.6490010116897762e-02
      7.4979666716004818e-03 2.2447670329921565e-02
      2.2321715148580428e-02 -2.9381581847281912e-02
      4.0905281369397152e-03 1.4732486552142791e-02
      -1.7764953381817203e-02 2.5098987254950869e-02
      -5.4235359062499919e-03 7.0239770809128908e-03
      9.9479571931861219e-03 9.6627426474873903e-03
      -2.1050288851191104e-02 6.9537394226072951e-03
      -1.8059041652171745e-02 -1.0575460132620947e-02
      -8.3013231392909895e-03 6.7851616605704582e-03
      -2.2051367594246661e-02 -1.7810726645143472e-02
      6.6376987532049498e-03 9.9638468374719548e-03
      -4.9371312201077480e-03 6.5034818587987955e-04
      -1.4841149458863237e-02 -2.2689302546278507e-03
      -2.0457236526934819e-02 3.1227913724648121e-04
      -2.4161269351658087e-03 -6.3522099063399577e-04
      7.7711715165334127e-03 -5.1227170707833351e-04
      9.1652384547884023e-03 -7.4245125154614160e-03
      -1.0260505793498756e-02 8.1317270526504188e-03
      4.9328726424844975e-03 -1.6889425005539332e-02
      -9.3419258681347560e-03 1.1397285779704549e-02
      7.1810466052391175e-03 1.0963554720507241e-02
      1.4217974217052762e-02 -1.8487568126882719e-02
      4.6716915750498102e-03 7.3523810284607336e-03
      -1.2261649582068707e-02 1.6921577993495324e-02
      6.8790154802871074e-03 3.2385168399464213e-03
      1.4843280083905893e-02 1.6409284309821019e-02
      -2.3616695890913898e-02 3.2179948050332701e-03
      -3.1521412392442882e-02 -1.4512316985947453e-02
      -1.5214387211036668e-02 8.2410459998147785e-03
      -3.4819741629578495e-02 -2.4171828398757342e-02
      1.0332447292563281e-02 8.5243817488206731e-03
      -6.6810750820240870e-03 3.9749519866281476e-04
      -1.8795166943369822e-02 -4.4725811427244978e-03
      -2.4048392549554959e-02 -7.1591255314302279e-04
      -5.1487507911319608e-03 -2.9394958158773048e-03
      8.0018949675091534e-03 7.6107538092712096e-04
      7.8098776287566446e-03 -6.0186011971153572e-03
      -1.6881352392234490e-02 6.0231136461104465e-03
      6.4413119374495519e-03 -1.8572865291260170e-02
      -1.1457310402088337e-02 1.2580061681287986e-02
      -8.1514355224514123e-03 2.3645267766490563e-02
      2.1013919033658929e-02 -2.0989355504151926e-02
      2.3575542083726681e-03 1.1236659919963740e-02
      -1.6360293916257870e-02 1.5373854789337756e-02
      -1.1503749345148815e-02 7.2921868813906046e-03
      1.4428087921057035e-02 1.8379553527653556e-02
      -1.9114638195545621e-02 5.3503963245582634e-03
      -3.7840923511811682e-02 -1.5524236044842762e-02
      -2.3417579932956945e-02 1.2550269571100652e-02
      -4.1051618240544853e-02 -2.0045340111364659e-02
      1.2774085464687817e-02 1.0267115884064554e-02
      -5.6143730234765417e-03 -1.4362888629839313e-03
      -1.8258766219832377e-02 -6.2100335428123578e-03
      -2.2497083918986752e-02 1.0607867389252207e-03
      -4.1951748444580593e-03 9.1662403088709735e-04
      1.2053392187643683e-02 -2.2365948765516695e-03
      1.0474769660285165e-02 -6.2295838797702865e-03
      -1.8662660523716221e-02 1.1429730637113474e-02
      8.4393473330572101e-03 -2.2260698517974832e-02
      -1.7104075793694766e-02 1.7068298788020162e-02
      -3.1680510685798247e-02 2.8890012876134793e-02
      1.6684440065295219e-02 -2.3834632802449678e-02
      4.4121332471591859e-03 1.2598796943678941e-02
      -1.6823698571993961e-02 2.6269302513430261e-02
      -9.9356942938267148e-03 6.1904881325462327e-03
      1.6046696477222473e-02 2.1259759684517206e-02
      -2.4720534424021223e-02 8.3219098915017897e-03
      -3.7357268259044722e-02 -1.8211708957504260e-02
      -2.5331783703390783e-02 1.4814696221978155e-02
      -4.0690826249143205e-02 -2.2756924332714586e-02
      1.2728957128505840e-02 1.2377063921642695e-02
      -7.0261047152922829e-03 -8.2667628626493280e-04
      -2.0650504788769754e-02 -8.2771189177579529e-03
      -2.5559551017646974e-02 4.9278662038474913e-03
      -3.0822477197824153e-03 -9.2486724031657687e-04
      1.3909234513710501e-02 -1.5746750750460846e-03
      1.1723613276329998e-02 -8.8719836345696693e-03
      -2.1399745996094385e-02 9.8887153743104465e-03
      8.6613486272994790e-03 -2.9249840472790129e-02
      -1.7605451560802909e-02 1.8089293182152657e-02
      -2.2287484563293540e-02 2.6297405372204957e-02
      2.1716335382696447e-02 -2.8691009415033934e-02
      5.9327456975161123e-03 1.6782357780828913e-02
      -2.0229245326152619e-02 3.4863343318834637e-02
      -7.2227780980140974e-02 3.0414028180171570e-03
      5.9212232674149563e-03 4.5868223822065545e-03
      -4.2819702536222417e-03 4.9399552153521920e-03
      -1.1797397591000488e-02 -2.2545881774869480e-03
      -3.2643307690028030e-03 9.1640504950882252e-04
      -1.4571555766323714e-02 -4.9244616575050484e-03
      2.5772373619662690e-03 3.0469010670023814e-03
      -3.5646207635430063e-03 -5.7993471637153822e-03
      -4.2344047481863408e-03 -1.3126743365692601e-03
      -7.8215272510351250e-03 1.2061031623900136e-02
      -8.8773635315676832e-03 2.8722184188798251e-03
      1.9245937177050365e-03 -9.3265841218741295e-03
      4.1560830177148891e-03 2.9809941518617322e-03
      -5.7362762216966092e-03 2.2033312249197367e-03
      4.5682877974138570e-03 -9.4705437327404132e-03
      -2.0812291196698066e-03 2.9316471611499466e-03
      -1.8617024035363378e-03 1.8774390036684307e-04
      5.9164037203150227e-03 -9.5595039814948789e-03
      7.2114245841655485e-03 4.8945793442083784e-03
      -3.6366050606974555e-03 1.0246816268230761e-02
      -5.4929307952161666e-02 2.6069640103409757e-04
      6.3591322918351498e-03 6.1849400612308744e-03
      -3.7311857433726960e-03 3.9933656128070191e-03
      -7.7196516784983835e-03 -6.9517096603624925e-03
      -6.7682237732954974e-03 3.1912444092801247e-03
      -1.4263406025350577e-02 -1.8370574601400324e-03
      2.6807154839601569e-03 2.4643813986038061e-03
      -4.6064832102827528e-03 -2.4268650761324418e-03
      -1.0130480883029929e-03 -7.6347139903465931e-04
      -3.0884553327231333e-03 6.0970912970960108e-03
      -7.3779286893792791e-03 1.9975595298781373e-03
      4.9699742786076711e-03 -2.9977847908291572e-03
      3.4108266604969731e-03 -2.2540468631485708e-03
      -3.8358951113915737e-03 1.7203375300535509e-03
      3.5022200571011119e-03 -2.9534564866784746e-03
      -1.6898201373810775e-03 4.6076577144753194e-03
      -8.2132701946037081e-03 -9.3749801352676599e-05
      2.3701701194932603e-03 -7.2997901675338674e-03
      4.1039676453179805e-03 1.8798169278976982e-03
      -3.1693504594777731e-03 6.3769813121989727e-03
      -9.5017372359207194e-02 -4.5798097424920928e-03
      -1.5593143184397635e-02 -1.6989981609068332e-02
      2.3338487840574268e-02 -2.9109098172234349e-03
      3.5168887704773534e-02 2.1283768853199509e-02
      3.5410332786126750e-02 -1.3804867849208570e-02
      3.6128351612906111e-02 2.5757915141506122e-02
      -1.9156257184415500e-02 -1.3663654130097071e-02
      1.6508860228241109e-03 -6.7181758878546698e-03
      1.9571993088773550e-02 4.1336114821525650e-03
      2.4817864379797647e-02 6.4627945060702578e-03
      -4.8862253691095677e-03 1.9611137964474991e-03
      -1.2964011590459163e-02 -3.6741017969034746e-03
      -1.3000844970758398e-02 9.8551279909530332e-03
      1.3781460371060043e-02 -1.2802621225998657e-02
      -1.0111496175066957e-02 3.1595574088053503e-02
      1.7337094221255431e-02 -2.1448329686400498e-02
      5.4301824632400401e-02 -4.5551449874651616e-02
      -2.4633549589571993e-02 3.5314068907598570e-02
      -1.4585135455546166e-04 -1.6788992504357590e-02
      2.3297538986879137e-02 -3.9971152719874586e-02
      -4.7543605924438577e-02 3.1263024684706947e-04
      1.1416212258447251e-03 -3.4387845989362572e-03
      5.3939287952459950e-03 5.9751426966609495e-04
      7.6032555662732494e-03 2.2543171519058070e-03
      1.3778072098623468e-02 -8.8218102329641189e-04
      1.2926320572977278e-02 7.1461295855276873e-03
      -7.0691029513586289e-03 -2.7248097249620816e-03
      -2.4425237081844996e-03 -3.5104881359666242e-03
      5.1595818192976669e-03 1.0645906219099461e-03
      3.9966944402556057e-03 -3.1975834813010733e-04
      1.1033093448494320e-03 2.1881522768273445e-03
      -2.5717737524572387e-03 7.1228622455596320e-05
      -5.1347375127856953e-03 2.2430037599855163e-03
      -1.8841651436095010e-03 -4.3367280092906644e-03
      -3.7234087998732684e-03 1.2973228561851806e-02
      4.9767004229665729e-03 -9.3435599190604922e-03
      3.5690864340390933e-02 -1.6510297739711566e-02
      -3.8655838871662108e-03 1.5763835321076048e-02
      2.5088909519491273e-03 -4.8474025505029486e-03
      5.8813205496555361e-03 -1.7386166835611474e-02
      4.3826759642955702e-02 7.1778526976965708e-03
      2.1697019525593757e-02 2.6783745185072334e-02
      -3.3605449171959900e-02 7.2173929522970082e-03
      -3.2139036669379228e-02 -2.4413031063437094e-02
      -3.0143526481145801e-02 1.6785949497811689e-02
      -3.6722419368529609e-02 -3.4705239955927815e-02
      2.0315123813919544e-02 1.4315799957576602e-02
      -8.1423227309472285e-03 1.6888470920479704e-03
      -3.2324685509306415e-02 -8.8221817561696461e-03
      -3.4258840925283536e-02 -5.1828299525118870e-03
      2.0476073001119547e-03 1.3835928384821584e-03
      1.5649357894403634e-02 5.8249852604239814e-03
      1.7134126163508664e-02 -1.4069058660518646e-02
      -2.7518171714136265e-02 1.1158282289671145e-02
      9.8461853222210783e-03 -2.9604269228816153e-02
      -2.4440226233573819e-02 2.5685878646370206e-02
      9.0522420702256884e-03 3.0970759864696194e-02
      3.1439226148944836e-02 -3.1094135999398122e-02
      5.1322219701161638e-03 1.8408050943918904e-02
      -2.9203183262144158e-02 3.1760578431095650e-02
      -8.5366440462212062e-02 -2.9563873640303757e-03
      -5.4103276582757051e-03 -1.0351063369332123e-02
      1.3274140739134955e-02 1.3420362844653948e-03
      1.5246752733759519e-02 1.1833851009381672e-02
      1.0859583526652014e-02 -8.2346854208165850e-03
      1.8266126377095678e-02 1.2776083344556554e-02
      -9.0881484857368213e-03 -9.7383251457254898e-03
      -1.1693020558825617e-03 -7.3843922769829869e-03
      1.0958009379748468e-02 1.4303640699945581e-03
      1.2958136078188343e-02 1.4382431569487134e-02
      -8.4888016726581885e-03 4.9811437359806197e-03
      -4.5806654421193882e-03 -8.4999486344477879e-03
      -9.1985939499105059e-03 1.3261644508982378e-02
      6.4212427442315867e-03 -6.8512168132894282e-03
      -5.4537031169717741e-03 1.3794296935093382e-02
      7.6251976154703754e-03 -1.3892510724288196e-02
      4.4820609824852274e-02 -2.1653067537045271e-02
      -1.3930157346078238e-02 1.4122114909977531e-02
      4.3776133072522989e-03 -7.9739330614646779e-03
      1.4996192438778455e-02 -1.6147823596556841e-02
      -2.1238853250960477e-02 4.5870902705417186e-03
      6.3370321066180115e-03 9.5135743668079940e-03
      -1.2005128800867329e-02 3.4698937874080319e-03
      1.8858723676616129e-02 -6.4534867284349517e-03
      3.2010649497859040e-03 5.3911208230489425e-03
      1.3889796078004781e-02 -9.7346187329181971e-03
      6.2952210214040358e-03 3.4755698272719376e-03
      -3.3619304110512130e-03 -1.2768505013857701e-03
      -1.1169322878025226e-02 -5.0302092076768201e-03
      -1.0861331624309023e-02 3.0464203008710301e-03
      -1.2031190551357123e-03 3.5040690177606552e-03
      3.6793633914872009e-03 5.3609970404866177e-04
      2.1344950284081171e-03 -1.5885659529940551e-03
      -1.0863452244863552e-02 3.1631734432399162e-03
      2.7494797074994323e-03 -5.0709413466014062e-03
      -4.9318965553022632e-03 7.0755455836155308e-03
      2.3474394293693912e-02 -6.4330599019465154e-03
      9.5552812382696771e-03 -7.3854856809380861e-03
      3.7255312486265853e-03 4.7448596592391664e-03
      -9.2931326833565579e-03 -3.2887770577025659e-03
      -8.7583601154923667e-04 6.6520524513385563e-03
      1.7616509357681297e-02 2.1297340656825158e-02
      -2.2909613055795731e-02 7.6629190125444072e-03
      -4.4061518775046389e-02 -1.9472522179145042e-02
      -3.7220377705854221e-02 1.2464341806383547e-02
      -5.2757040453897078e-02 -2.4529330505699221e-02
      1.3071071365594615e-02 1.1864295144728244e-02
      -8.6721360363908543e-03 -8.3254331141504462e-06
      -2.0061766890595616e-02 -4.2677373163952596e-03
      -2.6629170586269665e-02 2.4634843915271433e-03
      -3.2370029432555892e-03 -1.5144508575986404e-03
      1.4425594146305473e-02 4.9182198263878949e-04
      1.3099219715162102e-02 -4.8757132296997881e-03
      -1.8351431726171985e-02 1.0942087225159830e-02
      8.5902849971628940e-03 -3.0067775452938671e-02
      -1.6719070433692234e-02 1.7318702188972659e-02
      -3.3335692034806845e-02 5.4957617571842664e-02
      2.2052850165983115e-02 -3.3134446663750518e-02
      4.0660325284916339e-03 1.3626262425214496e-02
      -1.6998996320016894e-02 4.4950360616938710e-02
      3.0862339953161552e-02 9.7277912572757159e-03
      2.7526610160951856e-02 2.9855279051539486e-02
      -4.1243965255594157e-02 8.3910469622353826e-03
      -6.8681275868024944e-02 -3.2702072554261226e-02
      -5.4136749920130497e-02 2.0744753220192393e-02
      -8.1029794097120356e-02 -4.4062939093311056e-02
      2.2584663390576184e-02 2.0927119575668649e-02
      -1.0220539006386161e-02 1.4164333550227388e-03
      -3.3083052880368322e-02 -7.8884317931525953e-03
      -4.2351279031600228e-02 -5.7435127739633961e-03
      -1.7474289079290951e-03 8.5057057433964185e-04
      1.7544179196618020e-02 3.8063837715795138e-03
      2.0573710040612741e-02 -1.7661301742596947e-02
      -2.8108057974621133e-02 1.6242243899743911e-02
      1.6116848724494433e-02 -4.2468395303315754e-02
      -2.8209608011831169e-02 3.0631821278515221e-02
      -5.6692944215457557e-02 7.8403261935107688e-02
      3.8358333806052684e-02 -5.0509368230577265e-02
      6.0962687403488302e-03 2.5097687404652878e-02
      -3.4781702495830909e-02 7.0339578671656203e-02
      -1.8189699450870088e-02 4.5579612828983559e-03
      1.0260296143019975e-02 1.1192303220225568e-02
      -1.5412115430465183e-02 4.2614999868714077e-03
      -3.6534041717995250e-02 -9.6312294798457602e-03
      -2.7282291837274871e-02 7.6948551916595559e-03
      -3.8588208633657528e-02 -1.4253648578934793e-02
      4.4452324418496900e-03 4.8343142760467681e-03
      -1.8107194031404016e-03 -4.2947196976259525e-03
      -1.3143544563038801e-02 -1.0888938210333653e-03
      -1.6243618881639582e-02 3.6838783275207295e-03
      -4.2917646911492411e-03 2.6866975488344211e-03
      2.4496250133949488e-03 -3.6879139517186788e-03
      3.1232748872887434e-03 -2.6045749092191172e-03
      -9.1054097398311044e-03 2.2988464092932948e-03
      3.0226327770110869e-03 -1.5155526160711459e-02
      -9.3635434108958731e-03 6.5059303807953632e-03
      -1.7996482061377196e-02 4.1221113709168838e-02
      1.2775513457504703e-02 -1.6516092026683141e-02
      2.9279129624255021e-03 6.8803420003214480e-03
      -1.0625047776020937e-02 3.0446936117163620e-02
      -1.6778622868778359e-01 -8.9195561939088442e-03
      -3.6486080462121102e-02 -3.9018056169917804e-02
      4.5341671718789375e-02 -6.0591950538281319e-03
      5.1234913016407396e-02 4.1003229546755018e-02
      3.8984117699212908e-02 -2.7012961373222316e-02
      4.9720907079346517e-02 4.7781550020042862e-02
      -3.3821645308364200e-02 -2.7591475314332127e-02
      9.2575479008655467e-03 -1.4275743968108996e-02
      4.2295467172391105e-02 1.1400497874133398e-02
      4.5459477734319895e-02 2.2504822337003415e-02
      -1.3900578212894801e-02 7.0771651872679952e-03
      -2.7555576058716131e-02 -1.7407779150958900e-02
      -2.9230135906481904e-02 3.4554929923125123e-02
      3.2351241239070148e-02 -2.2864520296439182e-02
      -2.1156526671136180e-02 4.9479974484273416e-02
      3.9498105440785608e-02 -3.9207299490941157e-02
      6.0418739951700447e-02 -3.0062551625139603e-02
      -4.6222919106918545e-02 5.3494801387657630e-02
      -6.6313751580367934e-04 -3.3163885497257309e-02
      4.5943168781781632e-02 -4.4401583094504579e-02
      -1.3212380739709315e-01 -6.8531142157067628e-03
      -2.8928512408095682e-02 -3.1306278952699482e-02
      3.8585377496364433e-02 -8.4377026435728548e-03
      4.5707594698028868e-02 3.4248070885694690e-02
      3.1629972511476354e-02 -2.2077470871840740e-02
      4.7769769620504214e-02 3.7227009113025553e-02
      -2.6830763348777157e-02 -2.3722161028271363e-02
      7.8505335856081226e-03 -1.2030245802381191e-02
      3.5678004250204336e-02 9.4968535414551355e-03
      4.0125226201400320e-02 2.0586744633169271e-02
      -1.1509597402304939e-02 4.9555833175884021e-03
      -2.5178876198209309e-02 -1.4496436165481567e-02
      -2.6127083262065715e-02 2.7741656206651602e-02
      2.7211844120803651e-02 -1.9019226053593252e-02
      -1.7494830407385153e-02 4.3779913941358634e-02
      3.1648194652099712e-02 -3.7351159991621141e-02
      6.8159646750653891e-02 -3.0129787361082249e-02
      -3.7735396405032456e-02 4.7965320729439632e-02
      -1.7799039079305026e-04 -2.9068997997601188e-02
      3.8290836343202919e-02 -4.1986063278750776e-02
      -4.2377962463708556e-02 -1.5830045351137559e-03
      -7.3433513554368576e-03 -1.0186613559497586e-02
      9.7144744974932036e-03 -4.9444461535396128e-04
      -3.4188512598545538e-03 9.2272803178378195e-03
      -1.7548529161911224e-03 -4.3551414519078140e-03
      -2.5352910478883117e-03 5.2444554665763499e-03
      -1.0431729045041043e-02 -8.7666095405569341e-03
      2.2500259873772434e-03 -9.5663628487720935e-04
      6.8772663281727381e-03 2.8975741456431646e-03
      6.1234959155849122e-03 3.3909326244735147e-03
      -2.0101415896861935e-03 3.9276217294406104e-03
      -6.9180794063725022e-03 -5.2144749694958033e-03
      -7.6737053189149165e-03 7.1202159884521596e-03
      5.1703619001530476e-03 -6.0537236811776356e-03
      -5.5961876849580511e-03 6.4542296789849565e-03
      6.8748421014147602e-03 -1.1939097959112667e-02
      3.8911752491937963e-02 1.1887547554082950e-02
      -8.3677931352364506e-03 8.5603679725321548e-03
      -1.5688146779046768e-03 -1.1268014084000565e-02
      1.1111716074203005e-02 2.6155129660152413e-03
      3.3198261652493308e-03 4.2713413430169815e-04
      1.7888639397457139e-03 1.0643469488490133e-03
      -2.6631747237497298e-03 1.3933619368313266e-03
      3.1614380204948847e-02 4.4180386747454147e-04
      3.7363173203565875e-03 1.2163238423088807e-03
      2.1092172067432698e-02 -7.4273953788235288e-03
      1.2944344266622636e-03 -1.6668091655657289e-03
      9.5767474151567129e-04 1.6912874249097677e-04
      -4.9631264651684446e-03 -2.3126530560253246e-03
      -1.5683092131924083e-03 -1.1592275174724578e-03
      7.0576244388112497e-04 1.4326615987977785e-03
      -3.2519192414304223e-03 7.5436504294670794e-04
      -1.6354244838429467e-04 4.4211630933566068e-03
      -3.7113683097511514e-03 7.0634515041422213e-04
      5.0407493033520923e-04 2.8620954137433406e-03
      2.0552191969528148e-04 -1.2222408277925501e-03
      4.6334776853521685e-02 -9.1005782048400284e-03
      3.2845053171585321e-03 5.5002014124014747e-03
      6.2127184496490085e-04 -3.1367517448813850e-03
      1.5846361882075745e-03 -3.0310048622995927e-03
      -5.3956988671006653e-04 2.3298653489255334e-03
      4.2519817580276005e-04 3.2009434400854454e-03
      -6.3153073579718753e-03 -1.6666466653254461e-03
      9.3921812430802516e-03 5.5516142600310061e-04
      -3.0094861570385705e-03 2.2984313562034024e-03
      -3.9080647889605758e-03 -9.2575310762424892e-03
      1.3432571174331429e-05 -7.1472395581443087e-04
      -2.2594909907392188e-03 -1.4579442103148390e-03
      -5.3821046712600341e-03 -3.1586426515610591e-03
      -7.0226158195414385e-03 1.0890404598398214e-04
      -2.3195781349626289e-04 2.5630546535164236e-03
      -9.5846022472618260e-04 1.0375532748241251e-03
      7.2051283076055895e-04 1.8970832822558933e-03
      -5.7593786335684272e-04 5.0459208532392685e-04
      1.6385085614540494e-03 -2.2046848224070263e-03
      -1.7310360661975002e-03 2.6170735041541955e-03
      1.9177779803899415e-02 9.5610792080146195e-03
      5.4999639604192754e-03 -4.9190573675878457e-03
      -1.7501516006655766e-04 3.8120648390713087e-04
      -3.7448357312703947e-03 3.3892102973685622e-03
      7.9150434333459627e-02 6.3088556158530026e-03
      2.3150708982171173e-02 2.6137243038198296e-02
      -3.3408231374084323e-02 4.3613694488066970e-03
      -1.2896072426240043e-02 -2.4370823136923160e-02
      -2.8039588266037651e-02 2.1455204553175736e-02
      -2.2278376796871290e-02 -3.8143584249954794e-02
      2.0509079912374831e-02 1.8391483732392595e-02
      -8.2286046148327199e-03 5.5889994629723461e-03
      -3.3583655144751305e-02 -9.3008260826390379e-03
      -3.3559409631685119e-02 -4.3012710042504921e-03
      3.0069431161167510e-03 -1.0039127381719294e-03
      1.6073556353506161e-02 6.0399504446670407e-03
      2.0038781827139418e-02 -1.3603380218625857e-02
      -2.4918604282441529e-02 1.3995709431364682e-02
      1.1737913035258708e-02 -3.4456346207944272e-02
      -2.1768800590861247e-02 2.6538618528981699e-02
      -2.5054045740365891e-02 3.2124209392720759e-02
      2.9842060093227971e-02 -3.9646609315937192e-02
      -3.6876880876428817e-05 1.9712052629030603e-02
      -2.8749809972111250e-02 3.2431867874546390e-02
      1.3534704502516687e-01 9.3391721256501359e-03
      3.2447283074368692e-02 4.0136761836462607e-02
      -4.9213816221239069e-02 7.9046749356831009e-03
      -2.7929030022229274e-02 -3.6260283969506979e-02
      -4.4869353289578556e-02 2.8642045673899989e-02
      -4.8525296022930341e-02 -5.2926023456537713e-02
      3.0112526915317454e-02 2.6233392885053237e-02
      -9.1776376331203155e-03 8.3603194428150032e-03
      -4.8248146529808932e-02 -1.2824279070635831e-02
      -5.3095402090199389e-02 -1.2607742581829898e-02
      5.6521995105387659e-03 -2.6164721853811938e-03
      2.5150111690779176e-02 1.0005966019764084e-02
      2.9077101710267828e-02 -2.1438393190606916e-02
      -3.4530536612988098e-02 2.4849258800415656e-02
      1.9290645206244600e-02 -5.6720525805755331e-02
      -3.4751644459751686e-02 3.9093014506747840e-02
      -2.5768668321425776e-02 6.0512585791521974e-02
      4.4598359411971156e-02 -6.4957702589374153e-02
      1.4326888698614501e-03 3.1491889349943965e-02
      -4.2078853878143530e-02 5.1445002160564836e-02
      9.4771593025954282e-02 9.2444643379915974e-03
      2.8420069255743953e-02 3.0308267353564459e-02
      -3.8093428782040410e-02 6.5416920275764932e-03
      -1.7310867054862584e-02 -2.4489950850847556e-02
      -3.7584212562216647e-02 2.2019042029922442e-02
      -3.9070923109695413e-02 -3.9021222674529746e-02
      2.4730039340592161e-02 1.8623679256362154e-02
      -8.6174729066646090e-03 4.4190732304507816e-03
      -3.7359353300333638e-02 -7.3693208093443376e-03
      -3.9179470366140771e-02 -6.5134216705569634e-03
      3.3732929783896158e-03 -1.6440388772154626e-03
      1.8340172843059183e-02 6.7278664154826126e-03
      1.9103842945930774e-02 -1.8119093781527221e-02
      -2.7667187084698359e-02 1.6026768771177802e-02
      1.1973060851137186e-02 -4.4024634522866667e-02
      -2.8690006603891482e-02 2.7728676780751471e-02
      -3.2256433642954864e-02 4.6309302550731957e-02
      3.4358717432079418e-02 -4.6213846039204670e-02
      2.4816691653124288e-03 2.2725077232318223e-02
      -2.9265558276280541e-02 4.1347536909051463e-02
      1.6296640706213664e-01 1.4781231913505083e-02
      4.8661753338376482e-02 5.5480413151134431e-02
      -6.8733018463223425e-02 1.1433698056917862e-02
      -5.4511683455479375e-02 -5.1858626709567805e-02
      -6.4383862470585917e-02 3.9257012376148863e-02
      -6.8931164261947411e-02 -7.0928572101826903e-02
      4.3751440273780910e-02 3.9572602035891739e-02
      -1.7038644933500428e-02 1.1301480828588333e-02
      -6.0099539572916236e-02 -1.5541109565887156e-02
      -6.5469225813140103e-02 -1.6478983353706365e-02
      7.0011423503758908e-03 -5.9004692417677328e-03
      3.5362985239974554e-02 1.5358039783069714e-02
      4.0091757269889255e-02 -3.5364258392501360e-02
      -5.1877856492163213e-02 3.3028897307382669e-02
      2.8176062613664964e-02 -7.5256913234601597e-02
      -5.0473114492815684e-02 5.7402171841332665e-02
      -4.2981274430482379e-02 7.6393813260960328e-02
      6.3983536611546876e-02 -8.1268359479257618e-02
      3.4547515408874666e-03 4.2709309622829622e-02
      -6.0914109239973889e-02 7.7276111328832872e-02
      3.3111681528760172e-02 3.6969397076643627e-03
      1.2061930632137148e-02 1.1287853542720010e-02
      -1.9852965618881765e-02 1.5133057747482312e-03
      -2.5620745395484142e-02 -1.0186788268053838e-02
      -9.3931385568172751e-03 6.4009729710557215e-03
      -2.4149731513478479e-02 -1.8169755943750435e-02
      5.0083697661848781e-03 3.3759265691759507e-03
      1.8620383203801462e-04 -5.3963105259772203e-05
      -1.5284956961679520e-02 -2.7774984435146974e-03
      -1.5365583247223542e-02 -8.9497057151572811e-04
      -1.1939129501327835e-03 -1.5349460222406299e-04
      2.3050319849675016e-03 -3.6238092838851503e-04
      5.9180665033672017e-03 -8.6428365702711932e-04
      -1.1776256626905530e-02 3.9389941641376023e-03
      -1.2372949326304409e-03 -1.6486168073201399e-02
      -1.0217644236044278e-02 9.5927880863325016e-03
      -3.2793239396799569e-03 2.9230954731353804e-02
      1.5179690899264331e-02 -1.5027456938627030e-02
      3.6264932341123430e-03 4.6906923971727675e-03
      -9.4451224253342455e-03 1.2748962753266403e-02
      2.0789347203833661e-02 2.5730640338315932e-03
      1.1914056888659541e-02 1.5052006555571203e-02
      -2.2575986480105465e-02 4.1235732783321934e-03
      -4.0876799207164277e-02 -1.2926025901553168e-02
      -1.6535102313344922e-02 9.4324828275930608e-03
      -3.1872552643867957e-02 -2.2510035258834396e-02
      6.6974881782111244e-03 7.2896593250616499e-03
      -1.5138674810568288e-03 -1.2952608068651475e-03
      -1.6728621281112011e-02 -3.3746162469956952e-03
      -2.0606581295051024e-02 -3.2891978013618868e-03
      -3.7999834144615569e-03 -8.5946541491761265e-04
      8.2481098693109167e-03 -4.9113818787107638e-06
      9.9909021992703566e-03 -2.9880214727483153e-03
      -1.5690800891604781e-02 6.8693272527252216e-03
      4.0183500332173303e-03 -1.8026302282289200e-02
      -1.3408897527866568e-02 1.1095945764888541e-02
      6.4545652044974188e-04 4.0182751318736908e-02
      1.6024311210263580e-02 -1.9941984533036076e-02
      1.3481827659021816e-03 7.4380489803804626e-03
      -1.5527969397379503e-02 2.2170023719324177e-02
      1.8537531381542346e-02 6.1572259712756681e-03
      1.3752320856070364e-02 1.2487182985920501e-02
      -2.2202153118064206e-02 1.8480490411663809e-03
      -3.1081708067958846e-02 -1.2216885565721033e-02
      -1.9868242932876822e-02 9.0670731678759806e-03
      -3.2660888905188520e-02 -2.2586579434936166e-02
      9.4514977765053129e-03 8.9479607472883194e-03
      -5.2161404323680044e-03 1.5541102679874149e-03
      -1.8492709191325282e-02 -5.3301149146690449e-03
      -2.1965664154968745e-02 -8.7910263641111392e-03
      2.3462816095889834e-03 -2.0228151369807140e-03
      7.0499488320168455e-03 3.0690098424801132e-03
      9.9887879377772888e-03 -8.4495532189975877e-03
      -1.3468258648938013e-02 8.5286967243025300e-03
      4.5678055230156719e-03 -1.7291094098902653e-02
      -1.1525420256994786e-02 1.2810722651888833e-02
      -4.3136827499157026e-03 3.8144693674755377e-02
      1.7871533972115987e-02 -1.8720875232606786e-02
      1.0900799258083166e-03 9.2430587219862661e-03
      -1.5441745824113564e-02 2.2202373885300716e-02
      1.3221770971757600e-02 5.6897568222439689e-03
      1.3558035860159481e-02 1.3342841973242875e-02
      -2.0142988751180955e-02 4.3007545159101249e-03
      -4.5369992721703507e-02 -8.4786975680465754e-03
      -2.1467876089398489e-02 6.3889872968558433e-03
      -4.3722486516158614e-02 -1.9380654678248350e-02
      6.4934020580580424e-03 4.8012425270141795e-03
      -4.9928119913540776e-03 1.1310500346854622e-03
      -1.7276919745572130e-02 -2.2530772490629682e-03
      -1.9175186761333771e-02 -1.9943418875124916e-03
      -2.3694868898126316e-03 -1.1247474096857933e-03
      6.9294112514413624e-03 9.1362239319479514e-05
      9.0783119548335876e-03 -5.7558205987635336e-03
      -1.3138257903882403e-02 4.9194134541308355e-03
      2.5990100963288426e-03 -1.7225499952238751e-02
      -1.2476893373128344e-02 1.2993917137026630e-02
      -2.1400044074761534e-02 5.4671545543607480e-02
      1.6878311529253464e-02 -2.1230732519571440e-02
      8.8913450731103430e-04 6.6588920661694350e-03
      -1.3002237109242101e-02 2.8519855301370804e-02
      3.1494354289256957e-03 1.0457348103367619e-03
      9.5514276459786832e-03 1.0868845067707947e-02
      -1.4069337599166834e-02 3.7445833111806998e-03
      -4.8674458578909105e-02 -7.5430753506946545e-03
      -1.5848876031677044e-02 6.0570967813007503e-03
      -3.9276537852278137e-02 -1.1345782014029006e-02
      5.8144321716109559e-03 2.4013209178398247e-03
      -3.2898016685050722e-03 2.3807253463812563e-03
      -1.0577049057509275e-02 -1.7141676830806146e-03
      -1.5829795975588964e-02 -7.4245398335508854e-03
      2.4897700131267931e-03 -2.2849864758183475e-03
      3.6533146654153638e-03 3.6599849158598804e-03
      2.8735103221760698e-03 -3.5420860196628949e-03
      -8.4870865266514477e-03 9.5834962154144466e-04
      2.0688693318436180e-04 -1.2350184963775450e-02
      -9.1570605920102219e-03 6.0019462612309876e-03
      -9.4354435407246404e-03 3.5852180685363312e-02
      1.0425021112741911e-02 -1.6576164231517712e-02
      2.7758978324634023e-03 5.1339750195988215e-03
      -7.6042242451790044e-03 2.4504182092872837e-02
      4.6655941994255597e-03 5.9925816241583208e-03
      1.2417793587230636e-02 9.8010490080955286e-03
      -1.6457631468881601e-02 3.6009539594129211e-03
      -4.2927002075839348e-02 -8.8126173373247567e-03
      -1.9133078743888008e-02 6.0056548253583971e-03
      -4.2742083814359393e-02 -1.7203601778717895e-02
      7.1573630051105751e-03 8.3666267998894050e-03
      -2.0431286757737624e-03 3.2722143949489896e-04
      -1.3734602733387162e-02 -3.0886633962453340e-03
      -1.6194975783779951e-02 -5.1303354398631543e-03
      1.9180790908971768e-03 9.6889375085869311e-04
      2.6243881696369534e-03 4.0179862840036404e-03
      8.2612488408530752e-03 -6.3042634546057316e-03
      -1.1883553310641982e-02 4.1477254615845671e-03
      5.3987929596912843e-03 -1.5431207129267184e-02
      -7.1771533562103211e-03 7.0423134661439261e-03
      -2.9077842768661724e-03 4.0627379353245223e-02
      1.4247209276577615e-02 -1.9765770054027517e-02
      4.1866486022490062e-03 4.9589645764779979e-03
      -1.3179609721429900e-02 2.5809866426719903e-02
      1.2092569217563206e-02 4.6515599950778140e-03
      1.2917644441407306e-02 1.3864669518912879e-02
      -2.4297657713406699e-02 5.9025587043512158e-03
      -4.4622876474980318e-02 -1.2396389979776901e-02
      -2.8589236616649260e-02 1.1696752864007466e-02
      -5.3768267662184878e-02 -2.5404205466010646e-02
      1.1436971162756545e-02 9.2713995088939266e-03
      -5.4240540976119613e-03 5.0465588873530361e-03
      -1.9685394733679046e-02 -5.7094843715643695e-03
      -2.5546489102050887e-02 -8.9725809074740984e-03
      2.7430914659895785e-03 -1.1959125299301359e-03
      9.6884066341880667e-03 4.5549409935637048e-03
      9.6733213776660845e-03 -1.2823146998927146e-02
      -1.4788164027585749e-02 9.6006523685007988e-03
      6.6838201987476685e-03 -2.7847887555923486e-02
      -1.5355438131006732e-02 1.6271894917488584e-02
      -2.2121491109351785e-02 4.3109275595109429e-02
      1.9416963999794867e-02 -3.1912486106849693e-02
      4.4522376379397691e-03 1.2800087455141211e-02
      -1.9444275673503993e-02 3.5518308155341592e-02
      -8.5093175912606525e-02 -3.7611338171268161e-03
      -1.1274481571170570e-02 -1.4486346840824836e-02
      1.0004582639958412e-02 5.4774320141629180e-04
      1.2089958990875416e-02 1.3344043363503219e-02
      1.7066790944586983e-02 -9.9753228136055163e-03
      7.0121304349809359e-03 1.1682766346652640e-02
      -1.3289150255458090e-02 -9.3994022936250612e-03
      1.4802237089247851e-03 -2.6501098600264106e-03
      9.8772570014795009e-03 4.3542247265626853e-03
      9.1313346793815385e-03 3.0305301080922075e-03
      -3.2317266478509624e-03 3.4443352640555413e-04
      -1.2441101116143525e-02 -3.4221569803289911e-03
      -1.0848763117444704e-02 4.3444259828549787e-03
      9.4624805531361936e-03 -1.0493004829273341e-02
      -7.2838104193720474e-03 1.4718451295205279e-02
      1.4555692698320606e-02 -1.6901232916895492e-02
      1.1028568654007087e-02 -9.6607000098471174e-03
      -1.1398446513862508e-02 1.4801966173311976e-02
      3.9162663898103748e-03 -1.2372085540538423e-02
      1.5952442702104705e-02 -1.3910653576127363e-02
      -1.5570050359412876e-02 2.4648210522768381e-03
      1.0918328541851579e-02 8.9400576495901798e-03
      -1.6045088702957108e-02 4.1322203343220941e-03
      -1.2071963388421357e-02 -8.8567211891186614e-03
      -1.2672077423837851e-02 5.5626625872838183e-03
      -2.1390561924181192e-02 -1.2994093715788253e-02
      6.3672852912388892e-03 3.8229808844767689e-03
      -4.2003811907128947e-03 5.2251993341895123e-04
      -1.1766260219012127e-02 -5.1629506027063045e-03
      -1.3744002460737283e-02 4.9460257066379879e-04
      -3.0252336109364481e-03 -1.4086880865573645e-03
      4.5217826637050174e-03 1.4994889751805438e-04
      5.7109672133882471e-03 -5.6221294175364334e-03
      -9.9890658609754594e-03 5.4502466008380093e-03
      5.6673846561500945e-03 -1.3115794864337154e-02
      -6.1152925375179950e-03 8.4022181169218745e-03
      -6.1883272099991522e-03 1.4964666203092333e-02
      1.1481679840937441e-02 -1.5891071964977674e-02
      1.4933386865931919e-03 6.1860118082362903e-03
      -6.8556178605753467e-03 1.5388377395059508e-02
      1.2341949800794228e-04 6.5741692281404869e-03
      1.6367049051047383e-02 1.7263899227998682e-02
      -1.9841708282232657e-02 8.2324066967615888e-03
      -1.9719673430222809e-02 -1.7880509505176934e-02
      -2.1918665711569627e-02 1.0070819421320274e-02
      -2.6338391465975577e-02 -2.1272998234346183e-02
      1.0121455999505573e-02 7.9486465228067009e-03
      -6.8237164221413935e-03 3.0324905343389000e-03
      -2.1003894049350012e-02 -3.3263820410980374e-03
      -1.9832686143169062e-02 -2.3067002040226218e-03
      -8.9857335624777136e-04 -1.5085381148815264e-03
      1.2065090614752132e-02 3.8214042629653652e-03
      9.4362023367055084e-03 -1.3283677433897776e-02
      -1.8074675251006343e-02 8.3212743860428696e-03
      8.8476407389857618e-03 -2.1531020554433348e-02
      -1.2428051652599092e-02 1.6261371038704439e-02
      -1.6332799707866330e-02 1.9663651696238418e-02
      2.0656741052210922e-02 -2.3148011312583528e-02
      4.1414559362130529e-03 1.0404148253883905e-02
      -1.9101123417100449e-02 2.6679824039490374e-02
      1.7091891410464879e-02 5.5699980658065968e-03
      1.7469143548906881e-02 1.9393231727181413e-02
      -2.3947976630135297e-02 7.6109500365394173e-03
      -2.5043812294415956e-02 -1.7701671560469506e-02
      -2.3895871468187006e-02 1.5779980408890691e-02
      -2.9283960056830562e-02 -2.2100442312606466e-02
      1.4329016095282150e-02 1.2287260599895627e-02
      -8.5266046028525146e-03 3.8306025800383925e-03
      -2.1102004743826976e-02 -3.5856387385429706e-03
      -2.3904195036466958e-02 -5.9545235210118289e-03
      -9.4027560169110110e-04 -4.8749094461355782e-04
      1.1349788821992115e-02 6.0205388391162771e-03
      9.9710406504060784e-03 -1.0485386677984767e-02
      -2.0941333128960606e-02 1.1853504475715478e-02
      7.7769877226623223e-03 -2.1897091382293517e-02
      -1.7161224830262761e-02 1.8537706074160144e-02
      -1.4309514169112339e-02 2.3111245136643584e-02
      2.0024802003833820e-02 -2.4354710872541891e-02
      2.5819486772785914e-03 1.5444298938866284e-02
      -1.8384531212190459e-02 2.3819880704602125e-02
      4.7831540027987486e-02 6.6970641540219193e-03
      2.9011986893193724e-02 3.5555936266226613e-02
      -3.6997596684461238e-02 1.1958941180749208e-02
      -4.5199900749882824e-02 -3.4821309204755471e-02
      -4.4135102995172121e-02 2.3426878964821846e-02
      -5.2383922020236513e-02 -4.0046017001065387e-02
      2.6945162269778500e-02 2.0826066133821573e-02
      -1.2031765641081197e-02 7.2795740032361826e-03
      -3.6791307103795676e-02 -1.0896428416620592e-02
      -3.7472830623954040e-02 -8.5382670024024068e-03
      1.5217305552698483e-03 -4.2518819844937364e-03
      2.3437630742657551e-02 7.6176186206086899e-03
      2.2502268787818483e-02 -2.1182974162004004e-02
      -3.0089129520841900e-02 1.8596605604360002e-02
      1.4339290317255152e-02 -4.0671326826804695e-02
      -3.0361173986057893e-02 3.0554281477494012e-02
      -4.7776814215629779e-02 4.6995702874061691e-02
      3.5924713526923058e-02 -4.4415246350277937e-02
      6.7196247278298723e-03 2.7881714681629009e-02
      -3.6052433364673557e-02 4.9574649128946192e-02
      -1.1403391653401697e-01 -4.8036877438069319e-03
      -1.6681879678321843e-02 -2.0195210613780969e-02
      2.6808700090687022e-02 -1.0752673351107106e-03
      1.9473776160413892e-02 1.8310527042303026e-02
      2.3197270309892021e-02 -1.4834295799683766e-02
      2.5561088686373419e-02 3.0508835923721174e-02
      -1.8415575361973222e-02 -1.4645188808464034e-02
      4.1389967166951380e-03 -4.9693370816904529e-03
      2.3504880212684962e-02 4.9752432149303416e-03
      2.4843244593755909e-02 1.0689102111823024e-02
      -7.5647540140152585e-03 5.3541647327889630e-03
      -1.0585094656133885e-02 -7.0404418657411165e-03
      -1.4367655631550165e-02 1.3095535897159021e-02
      1.4042575506865837e-02 -1.1385174368042596e-02
      -8.1435238509250732e-03 2.5737932338590782e-02
      1.7272778148875689e-02 -2.4350462023725331e-02
      1.9180423768719392e-02 -2.6738314205472121e-02
      -2.4550782914939208e-02 2.8730066847941212e-02
      -1.0199490745974049e-03 -1.4953447658883935e-02
      2.4763430566815858e-02 -2.8651521837779054e-02
      -8.7641708440815536e-02 -5.3281307469779824e-03
      -9.7193723652540861e-03 -1.6953558427230054e-02
      2.3188041505572552e-02 -3.3598896604357612e-03
      2.6455608685455489e-02 1.7872376519726972e-02
      2.5068436248967936e-02 -1.2004330199156850e-02
      2.7824914593616482e-02 2.2316525430448590e-02
      -1.6518483610223796e-02 -1.4140127227190883e-02
      3.9228554399323356e-03 -4.9995266721154291e-03
      1.9254329987462859e-02 3.8194123787547401e-03
      2.3592528668090692e-02 3.7173578670071927e-03
      -2.6601272825233545e-03 2.7158230464449625e-03
      -8.3100672677311627e-03 -2.7885498115462000e-03
      -1.6311245192705541e-02 6.0846004818400036e-03
      1.2116836252888726e-02 -1.2704164840192994e-02
      -1.0921089824787256e-02 2.9258087893476212e-02
      1.5444942945040185e-02 -1.9447455152321099e-02
      3.3923934981012135e-02 -3.0257090218632401e-02
      -2.1311652870145862e-02 3.0518954515854686e-02
      9.2793553456104252e-04 -1.5362885348718939e-02
      2.3839260573015376e-02 -3.3627850668808273e-02
      -3.4905170465771442e-02 -4.5301700254070436e-04
      3.5211114475126289e-03 5.1720749428821647e-04
      7.0816007480649563e-04 1.2999705780066138e-03
      -7.8217977290695132e-03 -2.8516484768347605e-03
      -1.3692307700968538e-03 -9.0461593325982879e-04
      -6.3521928161736066e-03 -9.6253479251214122e-04
      4.2292083037265055e-04 1.7598672261923012e-03
      -1.4351880660445886e-03 -1.9058016267090826e-03
      9.6886751183478689e-04 -1.8546604678291957e-03
      1.4753771353408370e-03 3.5282142727820925e-04
      7.3213554820515789e-04 3.2014211195543316e-03
      8.2001269406169295e-04 7.1986750671127950e-04
      -1.5672102199739352e-03 -7.5118812648506067e-04
      -5.8576999162854061e-03 -8.0905868146383488e-04
      -2.6704025963394714e-03 4.5253796829111993e-03
      -2.2711677319898357e-04 -1.4856103451262564e-03
      1.9647531099456967e-03 7.0598985576724310e-03
      -8.6404797444837003e-04 3.5670801764487088e-03
      2.1186959918399369e-03 5.6326663963622884e-04
      4.0047238416200687e-03 2.0262551639035130e-03
      -9.3477164421916961e-02 -1.1439653035829004e-03
      -7.9816414317490196e-03 -1.2903144883972069e-02
      1.3851220921468621e-02 2.2658381978806902e-03
      2.8449639686421474e-02 1.0201534668914523e-02
      1.5223235066095974e-02 -7.1696550872851119e-03
      2.3574900267622271e-02 1.4981394189141396e-02
      -9.2361277485676178e-03 -1.1580741821093726e-02
      7.6380435394704830e-04 -8.9813925555327790e-03
      1.3646346825296706e-02 4.3330809015942112e-03
      1.5776012162499260e-02 1.5659031936626763e-02
      -7.7031871361522676e-03 3.3545788777056529e-03
      -9.1738990312148702e-03 -1.0712589954485228e-02
      -9.7460893181042178e-03 1.4149983728899558e-02
      6.9702592244639166e-03 -7.0869513183402589e-03
      -3.7685805655295209e-03 1.4278523187229015e-02
      1.2443004513032737e-02 -1.5595481052656061e-02
      2.6623627711802898e-02 -1.5463973738832655e-02
      -1.5331980191102089e-02 1.9791835667189121e-02
      1.9239472024199598e-03 -1.2991138951993398e-02
      1.5407165264170072e-02 -2.0354704048821195e-02
      -1.6426882389997875e-02 3.6354622381121631e-03
      7.1467778644736220e-03 4.9590518386179588e-03
      -7.0535355397024595e-03 5.7835813391562841e-03
      -6.1745127733112406e-03 -7.2562293370638988e-03
      -1.0616852640284920e-02 3.4620541897082530e-03
      -3.2056768624493708e-03 -5.9372801555016026e-03
      5.1722426238278146e-03 1.6724202365715520e-03
      -5.3807982707665533e-03 -4.2830575167568437e-03
      -5.2828780071702717e-03 -9.0495609355650494e-04
      -7.8578372139077885e-03 6.8281294196178774e-03
      -5.3881749705482459e-03 2.0541053303836689e-03
      4.8057949315467160e-03 -3.5670507631060350e-03
      3.8304874452825808e-03 6.1141122756651041e-04
      -8.2223067357803555e-03 2.9191437308803254e-03
      1.5370304755167464e-03 -7.5795218696258111e-03
      -7.0440606022525382e-03 5.7522376314162234e-03
      1.5175872738295034e-02 1.0934174181171059e-02
      5.8941367609909139e-03 -6.7083648370223877e-03
      4.7083717867931361e-03 4.5239822777402312e-03
      -4.8938433259715260e-03 6.6899163751456018e-03
      -8.1396484874211042e-02 -1.5027070482460706e-03
      -8.6596867624224964e-03 -1.0817067515030023e-02
      1.1731421926354011e-02 1.8207174552064042e-03
      1.3036125886794970e-02 1.5193353760430874e-02
      1.0850837043791367e-02 -6.1342701637228918e-03
      8.2572113978870102e-03 1.3341770864622904e-02
      -1.2164217102306585e-02 -9.5449689481913944e-03
      3.4261893701293899e-03 -4.8559146981246078e-03
      1.1768652737492172e-02 1.3159122153172844e-03
      1.2212088748689979e-02 1.1254593889772384e-02
      -6.4355089530999197e-03 5.3490806491466444e-03
      -7.4432535630992889e-03 -6.1496537125526511e-03
      -9.5244038375184078e-03 1.1201009464709071e-02
      6.3225757876063261e-03 -9.6287140316573139e-03
      -6.5489023356629598e-03 1.4467225209079223e-02
      1.0492488498335881e-02 -1.4740482541218076e-02
      3.0325791420961999e-02 -8.3373863624230989e-03
      -1.5798452457895316e-02 1.7635173476352461e-02
      1.8469561429809581e-03 -1.2935428760572564e-02
      1.8177128450065975e-02 -9.3187761751613533e-03
      4.3426838553106480e-02 7.8298871979441236e-03
      2.5858667579044307e-02 2.4868225922554686e-02
      -3.1591047404251449e-02 8.6981333921187631e-03
      -3.6967403181246944e-02 -2.4697514319677007e-02
      -3.8200316601465958e-02 1.7935593454655743e-02
      -4.8378768631006132e-02 -3.2069577828082174e-02
      2.0747962274734553e-02 1.7126304331160268e-02
      -1.0390133178032787e-02 2.5682250692919332e-03
      -3.1033300997789313e-02 -8.0974362246825447e-03
      -3.1353018677382855e-02 -5.4645443061228831e-03
      -1.9520841077274359e-03 -1.8909458998179621e-03
      2.0406574385402824e-02 5.3530229201751061e-03
      1.6243038358425790e-02 -1.1767728907417143e-02
      -2.6729636478431802e-02 1.5333121073436760e-02
      1.3996188767873419e-02 -3.7251421762861302e-02
      -2.3176159451243929e-02 2.2487921530941170e-02
      -3.3872346521080648e-02 4.8810731609632910e-02
      2.8702144063760104e-02 -3.9365085779781026e-02
      2.5323114621426915e-03 2.0333702849522867e-02
      -2.5848346961419133e-02 4.7389701357597361e-02
      2.6483362000617522e-03 5.1376869707118970e-03
      1.3726878910653240e-02 1.1571364907859641e-02
      -1.6220133695569149e-02 2.0673846197548688e-03
      -2.4105392287285164e-02 -1.2713389699215052e-02
      -2.3205125108916425e-02 1.1456208138435720e-02
      -3.1478096382302902e-02 -1.9133993434912056e-02
      6.8945971842188881e-03 9.9262682945736921e-03
      -4.8483825875366773e-03 -5.1102642012719923e-04
      -1.6265693618603468e-02 -4.0089712958789950e-03
      -1.7011533434332437e-02 -3.1140341196282616e-03
      2.9510697818331208e-04 2.7728262491632737e-03
      6.2680516984374209e-03 1.6084638354441187e-03
      8.1776483979302643e-03 -7.3797643215552317e-03
      -1.2695545954026390e-02 7.0431907957504702e-03
      5.2014620486571204e-03 -1.5117832038460644e-02
      -1.2695278887850594e-02 9.0437866009739284e-03
      -1.5153264938993716e-02 3.2617633815570944e-02
      1.2337678273576756e-02 -1.5603658602967719e-02
      9.4424936552711604e-04 6.9318324806799348e-03
      -9.5006882581394371e-03 2.7817913580458441e-02
      -5.6340698424373004e-02 -2.7513548668818512e-03
      -4.9744276162629842e-03 -5.3865583119085021e-03
      6.5350412780025655e-03 -2.6669223468702317e-03
      1.9269784229526059e-02 9.4193840928294293e-03
      1.0178367918120691e-02 -4.0703759220736433e-03
      1.2666783946199947e-02 6.2003262601367055e-03
      -8.7288936631041026e-03 -7.6011175655576564e-03
      3.8218583011589971e-03 -4.1978220834908882e-03
      4.7128870650142308e-03 3.1373655788596486e-04
      4.5308277785177332e-03 6.0492232110559083e-03
      -6.6361132164819234e-03 5.6758487312067634e-03
      -7.8961157272058654e-03 -7.1566500146014100e-03
      -5.5338927691752802e-03 7.6277861172259348e-03
      3.3279878811217655e-03 -5.8080295736861404e-03
      -6.9147992264925809e-03 9.8275469705050040e-03
      5.6046781586868927e-03 -8.6010902341642510e-03
      3.1119566842567826e-02 -4.7231220176572391e-03
      -8.0530286723959205e-03 1.0702642598715437e-02
      9.5656964046611081e-04 -9.1446473485412225e-03
      8.9684532544436028e-03 -1.4224930798165251e-02
      -9.2316213739064554e-02 -1.3403933548297717e-03
      -1.0350859839321764e-02 -1.3169506080021015e-02
      1.4528660115822942e-02 -1.2510686817154121e-03
      3.2190747628513199e-02 1.5604442927108055e-02
      1.1592835438751902e-02 -9.9800270221765026e-03
      2.4574311277634542e-02 1.5556888063672733e-02
      -1.1283353281146900e-02 -1.0206550956986546e-02
      1.6583542439808651e-03 -7.2007141847481955e-03
      1.2413611242339266e-02 5.4588387944925218e-03
      1.3291650045484917e-02 1.8856660797969715e-02
      -1.0010056710440146e-02 3.0089453178458896e-03
      -1.0625222377141244e-02 -1.1683190345590386e-02
      -1.1360454304287053e-02 1.7890030688135820e-02
      9.9153590270719544e-03 -1.0997675296572161e-02
      -8.8979260875104993e-03 1.6807540497022461e-02
      1.5278077349901583e-02 -1.6335535247725765e-02
      2.9606368814851722e-02 -1.1820916118607911e-02
      -1.4437940966058696e-02 1.9618939346077842e-02
      2.8541250205207301e-05 -1.4992917377812186e-02
      1.7890898634362766e-02 -1.4686287942640763e-02
      -1.1604131307637502e-01 -8.1024997767337389e-03
